solver_type L2R_L2LOSS_SVC
nr_class 2
label 1 -1
nr_feature 6144
bias 1
w
-0.005003520347911358 
0.002069803013184546 
0.005174648715386205 
0.005770423962997794 
-0.01448714985262205 
-0.0367621344258923 
-0.02794459664664868 
0.01101089457859012 
0.008666665134766542 
-0.02012648943416123 
0.06575279828180118 
0.02424015059444452 
-0.02078629004738948 
-0.0174857471188182 
0.01500355425557434 
0.00630631014205099 
0.01284952839634534 
-0.01440907292094286 
0.03312943265799884 
-0.01037956465816266 
0.01091253397466537 
-0.008546722578458163 
-0.000137242882255898 
-0.006039288632080092 
0.02785929565990963 
0.01875779505813649 
0.001523177575111411 
0.001975857592573251 
0.0355570028413526 
0.00222207838522583 
0.01676492228306924 
-0.014860750409855 
-0.0007474025127886761 
0.001263892979786343 
0.01315113524375824 
-0.004714853506517448 
-0.02282390016881265 
-0.005469724342330157 
-0.02510834369198174 
0.01764526328517421 
-0.007660696427159833 
0.004981475262397511 
-0.01690123403309758 
0.006578004626564695 
-0.01275568672542528 
-0.002289109263499082 
-0.0003020207915855601 
-0.0247449283333634 
-0.004337326818695084 
-0.02127970823354044 
-0.00205813933788758 
-0.00697602903805972 
0.0378438461173811 
0.0271264404242818 
-0.01749792865161751 
-0.02820862901581239 
-0.02182719361448771 
0.03875054149879911 
0.02987474445180364 
0.008319553173496204 
0.01863953592520786 
-0.01377758079542864 
0.02447160859508605 
-0.006161226087019822 
0.002664889266725591 
-0.004195764438625247 
0.0258392781694716 
0.03597235631195608 
-0.02312395751737616 
-0.0264391761526756 
0.008879937882809405 
0.01317848370247718 
0.01442150630026301 
0.01147596267241498 
0.008140992211158772 
0.005028185738844742 
0.006646845288083352 
-0.03718286608957103 
-0.003187494927532327 
0.02737291596187517 
-0.001307662724359647 
0.01299300062055115 
-0.0077356816468095 
-0.02314412706978508 
0.007754396219211935 
0.00237656846180913 
-0.001021865536112009 
-0.01633714512603848 
0.03010638215034521 
0.001959273739762304 
-0.01388451168609694 
-0.02902924355619753 
-0.006209452098316521 
-0.04394066992596347 
0.005438391961759498 
0.0004430470439009493 
0.01839911411320389 
0.01312083096711165 
-0.003596098504759031 
0.008205299317585775 
0.01158208655470198 
0.01143715477397159 
-0.01337154284471177 
0.01332920143227819 
-0.01079045366246222 
-0.002444117903920587 
0.0004225568703275601 
0.008454014893288557 
0.01382371036393016 
-0.0008277937384174614 
-0.003095762379452143 
0.005920876257174643 
-0.018435862770501 
-0.01325746795130324 
0.01572515069785909 
-0.03636954142028007 
0.03327623206298854 
-0.008945717976554125 
-0.01512813884792744 
0.002350702483139244 
0.01876030251118957 
0.01426424964277364 
-0.0005273014953322304 
-0.02554912327528925 
0.02471023092682494 
0.0005748998346132857 
-0.001425466379099617 
0.001345201563785435 
0.009799302154985012 
-0.001669371383296941 
-0.03301632929190409 
0.001847080476171332 
0.0001326086229401944 
-0.0209294907115855 
-0.006623246612253285 
0.004417154127878315 
0.01134309840262906 
-0.02975562097965451 
0.0137113098352971 
-0.01336515888658423 
-0.03056310050626673 
-0.01643979100209925 
-0.02140371227986727 
-0.003964933677113916 
-0.01220623609634657 
0.001639161831019996 
-0.02070818633068418 
0.01311884189460462 
0.005854753472316884 
0.01308041798150547 
0.002198357793834611 
-0.0007248654118830881 
0.04799990767843172 
0.003443565906509785 
-0.0172558476936482 
0.0325125542177515 
0.0360486890477587 
0.01615102901872734 
0.02015870522725214 
0.0005302504072158193 
-0.01491375362800119 
-0.03574601936142056 
-0.03892317418311501 
-0.009719590114107404 
-0.01384706348878529 
-0.02032916461597326 
-0.007949499630951016 
0.03510776808035251 
-0.0007874502885196378 
0.006597192831704409 
-0.00103788408425645 
-0.03949375140812197 
0.01678745005331527 
0.009661148644304823 
0.0008120819316022267 
-0.01360737543568321 
0.002153041211443719 
-0.03278667140273392 
-0.03419092177714698 
0.009065814936435299 
0.01915344068421205 
-0.0166592764738116 
-0.04608819472223481 
0.006810744023721218 
0.006806002439833975 
-0.02293703473477056 
-0.05606649769217235 
0.005418833639128474 
0.009339001173000717 
0.003557382462747092 
-0.0003072634595633458 
0.01103428562528969 
-0.001007442607148272 
-0.01986254205070798 
-0.003417074690970731 
-0.02089191748796974 
0.01755733343424117 
-0.01421880445163473 
-0.007706256573348884 
-0.0316305685923691 
-0.02001652813974759 
0.02608050258069597 
-0.03436624696618167 
0.02159538092131812 
0.00708380668103448 
-0.003111134841378749 
-0.004926318633533562 
-0.001885235455617492 
-0.01859751732172839 
-0.01414900801814637 
-0.02612153641307975 
-0.009910123218352357 
-0.006365778234346128 
-0.01733177591856793 
-0.006387543032471968 
0.008249748548657456 
0.01882365990003728 
0.004518595720905678 
0.004560404907278093 
0.02327821450917032 
-0.002912346258285851 
0.02390941125930645 
-0.03844018508339368 
0.0007930765426637359 
0.008025583670277952 
0.03943723601097654 
0.01167127417601206 
0.01772513051309598 
0.03317502203206862 
0.000893028963210232 
-0.002394382684041357 
0.005016197319593135 
-0.005279746775419308 
-0.01388213471146204 
0.02621994621239625 
0.01302632594667858 
0.01185686121428527 
0.009362310203846862 
9.299257314664079e-05 
0.0004835098562204914 
-0.002713304851430683 
-0.01226718338014476 
-0.009877020734323479 
-0.0002919310650716624 
0.005194238050333014 
-0.001662500000528359 
-0.01011829167243831 
0.00773409574225973 
-0.01235530121162729 
-0.001547045998920955 
-0.03075499845710892 
0.005740627724918379 
0.006992768992037683 
0.01175696745869032 
-0.0007052100534328659 
0.0004624023950462225 
0.009228664121560546 
0.01924883493209572 
-0.008364770638044009 
0.01567359364829157 
0.02287365117026793 
0.01211287886899546 
0.02567785299236859 
0.01503671634458731 
0.00189163873778995 
0.01758876251815896 
0.03250564528844271 
0.006482028534461236 
0.02290977956631286 
0.01272808235187591 
0.01443941206680375 
0.0002526422229615169 
0.003539317372202528 
0.01253998372839131 
0.02069401285759962 
-0.002050895412099214 
0.01399534715079634 
0.01687501104736621 
0.002147809845668891 
-3.142267451271448e-06 
-0.03082919024973758 
0.00409833618300046 
0.01764242996451706 
-0.01824280153221269 
-0.006756723434835348 
-0.0001450205760352501 
-0.00533948906003771 
-0.0266457012220864 
0.001344069557904624 
-0.02128193239408986 
-0.003659783389711483 
-0.001852477576654513 
-0.005583923348945666 
-0.01929853851723307 
0.005032591258722955 
0.01916912290010374 
0.0308524055529778 
0.01373768182407962 
0.04879855877438867 
0.002400002027748995 
0.01194276900965131 
0.02472784420662469 
0.0152947015615006 
0.008229897751963602 
-0.008467217513181489 
-0.02719336608141725 
0.002982316793370578 
-0.005297610306972945 
-0.01178221269438317 
0.00291670535831723 
0.01514055354402407 
0.000843004470314921 
0.03418930834618266 
-0.007025330524047327 
-0.006446516301463833 
0.02243084941706928 
0.01535965071131457 
-0.01781964505478506 
-0.005839037552966624 
-0.004932980815182085 
0.003013755445519076 
-0.006938248188829542 
-0.0162717211528717 
-0.01798497036975532 
-0.004645095001116832 
0.01089958322771388 
-0.02477933155243444 
0.009662665748671747 
-0.006078020463963898 
-0.01345160543476964 
-0.01660954500628031 
0.002251851517249183 
-0.01416684620464115 
-0.02017698268253854 
-0.008873431760135699 
-0.02034543497200495 
0.0006466372085425197 
-0.04878086408083279 
-0.0027483181373843 
0.01151986776061373 
-0.0162265344855075 
-0.003256801104442416 
-0.0005921090590034859 
-0.03103687301830104 
0.02003929866102026 
0.002993458840512375 
-0.01774967334631447 
-0.01129472265352868 
0.003989231828537564 
-0.01614046959996082 
-0.007969116104857841 
-0.02862444942950542 
0.009149897923654771 
-0.003472215813725276 
0.00824400324360478 
-0.00514985193198036 
0.0300742921766338 
0.002550702409033196 
0.02522315171355281 
0.002239783524537956 
-0.004458744012660044 
-0.002685748035980243 
-0.02003084152623159 
-0.01394261241327988 
-0.007585878529702793 
-0.009753075559757908 
0.01003755003767885 
-0.03275255100672173 
0.04517121808063266 
0.002434769598134361 
0.008076037975557804 
-0.01300263749545634 
0.06302110617897295 
0.01687153647848769 
-0.00930962876055192 
-0.02893428004246289 
0.02770691707775359 
-0.005809321332112434 
-0.01989749364275967 
-0.02537833095641314 
0.014181271454644 
0.004880702816569228 
-0.002332279482607529 
2.360044861530883e-05 
-0.0009735975942982823 
-0.0006798436192469192 
0.01153117588693445 
0.01366220762121318 
-0.01213616902933886 
-0.03932064342835775 
0.01955031541064437 
0.02112332835847193 
-0.01045117123023636 
0.0092375852883199 
0.005412830881953227 
-0.009652129185600017 
-0.03190723978774343 
-0.004397134614096571 
0.0004653366920910375 
0.001801215448612087 
0.03659409852610278 
0.02164238473311287 
0.02952981655803447 
0.02760507272583731 
0.004868429239963265 
0.008575218199526917 
0.007607863558952699 
0.001140099589671244 
0.0359315056212372 
0.005974921143204162 
-0.02207612606506396 
0.02224194803133473 
-9.614643673055539e-05 
-0.01235900634964228 
0.004810958582936387 
0.0005553201699475764 
-0.04959617981761505 
-0.02175683843999135 
-0.002460682721387544 
-0.04291025402634877 
-0.007117533720152886 
0.009538461446059016 
-0.02533512467883599 
0.0108719727858132 
0.01030006497856292 
0.00534026568387216 
-0.02907301857171546 
0.009029428125775235 
0.003677969233221066 
-0.00835826756718748 
-0.006584188295177362 
-0.01725879084872028 
0.01481922594341135 
-0.007829060961651034 
-0.02239608867235906 
-0.007239649108550513 
-0.02079908011132775 
-0.0122402558111806 
0.02223178833145775 
-0.02642044855104548 
0.02460513396431681 
0.01025987325311695 
-0.007924876597065754 
-0.008469098669326826 
0.01162427789506362 
0.00757125579340331 
-0.006651687432548528 
-2.011760012418087e-05 
0.007571021043648778 
0.004030482263946447 
0.03764152288361701 
0.01113734846155956 
0.00762682292082857 
-0.03114581685183132 
-0.01292423174770759 
-0.006479712360404123 
0.02762814909895847 
0.06441575785681913 
-0.01090172949626452 
-0.007697231186210299 
-0.004743469016488679 
-0.005243778891252429 
-0.008732594053048595 
-0.01768043245652324 
0.005280437836049898 
0.0006756851338277547 
-0.002040749662085092 
0.01905870498060573 
-0.003946572948967477 
-0.0008642364785054555 
0.001916326215645003 
-0.01981899711425225 
0.02575605458110392 
0.003919275294279793 
-0.03415197974394633 
-0.02038051887277834 
-0.01947517087181787 
0.00232395253007428 
-0.005005491814130655 
-0.01574473896058118 
-0.02108647113005644 
-0.0390933560020202 
-0.03381029152027456 
-0.01374129627045977 
-0.02156975197338225 
-0.01742708450368665 
-0.02264858345077536 
-0.004319312911059957 
0.003887998324021627 
0.0232337907043668 
-0.01624569974857062 
-0.01125570695150681 
-0.003702716727484901 
-0.01400482921065592 
0.007011594349336642 
-0.007573526736130579 
-0.001032097377261878 
-0.001047323103030321 
-0.01016048814324655 
-0.003540457030422892 
0.02083373788634737 
-0.004967312684087704 
-0.01222224714773651 
-0.01253554718983541 
0.03627487978079577 
-0.009200758609774632 
-0.007995646261622871 
-0.00661199873420455 
0.006537820686641866 
-0.016958763151676 
-0.007092649599914428 
-0.007604167826467551 
-0.001179703955100132 
-0.004741446528877903 
0.01117942094133146 
-0.01394367513870646 
0.006387018723445646 
-0.01684775476809702 
-0.008020723392915732 
0.02508636717351514 
0.01386299878517946 
0.0006163434569274912 
0.0226836256010943 
-0.01192388276706972 
-0.0145837783431355 
-0.005101115192672873 
0.001440175842190362 
-0.005931771432837823 
0.00751238104121529 
-0.01367162748473635 
0.05651837815750417 
0.01617179191117598 
-0.007314792298486002 
-0.01149634251780092 
0.02047849803547178 
0.001023744937027721 
0.01471597875686846 
0.022454024687387 
0.0005124787304554669 
0.01797356687499928 
0.02827670547412039 
0.003611171801694697 
0.0153327716641086 
-0.01084053129238595 
0.01120063482298114 
0.01146654149954871 
-0.02186676349862713 
-0.00878975941847282 
0.008550492104857975 
-0.02310384955313644 
-0.02413534865119355 
-0.008913855602135069 
-0.01039153630834005 
0.01066052334187154 
-0.03595931444715042 
-0.0008432535929275898 
-0.008362226615794064 
0.012899442247164 
0.02930312588308863 
-0.0009787165783535431 
0.00892214047220974 
-0.02385351670709739 
0.002751156663230699 
-0.05194250425000137 
0.005817084444285272 
-0.006364928017669904 
0.006554827842347569 
-0.008228184021934926 
0.02026067920090452 
0.0215193956363785 
-0.0008296911817124732 
0.01498914366173797 
-0.01072137031975259 
-0.01324846683708499 
0.02690443982661931 
0.01217516804592704 
0.009245736318703481 
-0.008722076304629822 
0.02223697697300151 
0.0006550776533903614 
0.008829673087587061 
-0.009493019881536384 
0.02427893935681946 
0.01138262875558655 
0.008640065790915905 
0.008527334397447163 
-0.0098517077633191 
-0.001196774832557466 
0.01245135534212849 
-0.01246543959827981 
-0.01467837007481979 
0.005603671578263095 
0.01812599547963147 
-0.003369978597163579 
0.02449992214460639 
-0.01115553459047753 
0.005743490644701667 
-0.01878079907846746 
0.014432070644365 
0.01323665835919854 
0.0231617086915668 
0.007303629654081573 
-0.01427799433969487 
-0.00831587623286807 
0.01432656833254217 
-0.05565068721077037 
-0.01649008086536423 
0.003193506865209827 
0.007043880530607463 
0.001381125822896695 
-0.01284515838845966 
0.006167126542678558 
-0.04102781952506392 
-0.01144135058687889 
-0.0171272919308507 
-0.02751586690268498 
-0.008662432431961922 
-0.006198087795207047 
-0.02528455231929987 
-0.007763599861541351 
-0.02216969816341033 
-0.008917916822090642 
0.01167172747087434 
-0.00395815915473401 
-0.01948004640889512 
0.0256515703053247 
-0.04185080715448322 
-0.007234759438274927 
0.03046349003474088 
0.004402390410109493 
0.0188800543541134 
0.006061779987044675 
0.005257153766757948 
0.01501098576484898 
-0.003452513228169648 
-0.009840069829909743 
0.01654368552238866 
0.01980687921490583 
0.01317655728945977 
0.005416029144507892 
0.005951078966694971 
-0.0132302571559345 
0.008730753821912659 
-0.00626315087461618 
-0.01274903461132639 
-0.01032682640154472 
0.004530181275655699 
0.002186481569415141 
0.001848766116629715 
0.01948645099304751 
-0.00984287213593949 
-0.0180245006576852 
-0.03178474172238394 
0.01668474916730084 
-0.03386605864417302 
-0.0209899028109063 
-0.01516451159349272 
-0.01415197055902736 
0.004454583359133935 
-0.002347227621329079 
0.007593957870811625 
0.01094008076835564 
0.002658616813757957 
-0.01021824349388779 
-0.01473303058960936 
0.01503165577939028 
0.001971848067470669 
0.005478605934674059 
0.03879781096731207 
-0.01418999381390136 
-0.02919782949085926 
0.002659307296285537 
-0.004162860232794933 
-0.02452273251202593 
-0.02897421148975042 
-0.03982240308212088 
-0.01756816048193873 
-0.02231481586771881 
-0.01283711115525081 
0.009687819609816677 
0.0003102851276981148 
0.004850545105721929 
-0.02300374335417232 
-0.03357373683186745 
-0.007839363000441121 
-0.01276449801594297 
0.001456108171957251 
0.01902255297265176 
0.004446782695133483 
0.02133695901712592 
-0.01976270669646911 
-0.009685266451037178 
0.01117016334713575 
0.001370637539317458 
-0.04889195949797102 
-0.01341348733981518 
0.008660924479100355 
-0.006907570434681563 
-0.05135507268549426 
-0.006779827440184504 
0.0008447743350087972 
0.0003712496640469208 
-0.0003096522608354965 
0.01243270782590681 
0.01482536527371885 
0.02348964808340296 
0.005496272695601416 
-0.0114049635202043 
0.01840097419337173 
0.006809039144939852 
-0.0007937697922170802 
0.01955452591090784 
-0.01876173414526512 
0.02710441349839449 
-0.01917579124605914 
0.008709505240794215 
-0.03285763002067066 
0.008752924583107179 
-0.009943121157616173 
0.0154154708695081 
-0.004067415511192045 
-0.01662204632073492 
0.007713758102871562 
-0.02813539294527369 
-0.007732075358615671 
-0.009669999234922904 
0.003334904816078541 
0.006649279863757005 
0.01590848455206553 
0.01644953937864884 
-0.00417288889175121 
-0.002969069162019801 
0.002023646471877018 
0.007582525973530554 
-0.007257317751561066 
0.008973606018068452 
0.01348266443738668 
0.02305226829085775 
0.01666651816093993 
0.005733506299952687 
0.02159362222256716 
0.02116430086849335 
0.02082676800221974 
0.01677199759208592 
-0.003676742192525374 
0.0133594044288274 
-0.006966099325457501 
-0.01086624358270451 
-0.01750917256243403 
0.003772616822794145 
0.01445849007631814 
0.01008133637260704 
-0.005569721859292821 
0.008549287445647404 
0.02281150273017499 
-0.001416827691289391 
-0.0150205897591585 
0.009187222437584734 
0.01236589259930272 
0.001630923087993068 
-0.008152626816441411 
0.00252836853997357 
-0.03222698840858164 
-0.004781627978895055 
-0.01246961236144454 
0.007181335714098646 
0.002028017078066252 
-0.000931230815235418 
-0.004526607560690233 
-0.004996772754726691 
-0.01279344662708906 
0.009563394319059554 
0.02632692231095652 
-0.01028169608130237 
0.01228557262409598 
-0.006016241022531138 
-0.005900086155128476 
0.004077276432807645 
-0.003347002165918217 
-0.007247045554594302 
-0.01728603566366559 
-0.007859542706558123 
0.008038538291788092 
-0.002645537288856739 
5.631471902796162e-05 
0.02961785542620612 
-0.007282038702990256 
0.009838163956636713 
-0.0004541778055609444 
-0.018851081439879 
-0.007379994526259774 
0.00434105343449142 
-0.0261505533204982 
-0.01014342479063603 
-0.013312296220665 
0.02535063133725272 
-0.008604934926263814 
0.004249021610531419 
0.03842678837784637 
0.01633589451662827 
0.02331866322491402 
-0.01513965575352876 
-0.0006038281169199562 
0.01997283243793812 
-0.03909843620979078 
-0.03575608791174428 
-0.007581068743560676 
0.0134128227318906 
-0.01239968046154283 
-0.01261845051053615 
0.03049350370135833 
-0.007226058769735589 
-0.03017111294837905 
0.003929833351086065 
0.02064870228684692 
0.01667975044362359 
-0.005677985457621018 
0.01203943098849442 
-0.006498714389489587 
-0.008899659825761869 
-0.03245627621117831 
0.002287396896372641 
-0.01747357375295201 
-0.005263202761156655 
-0.002032089753542359 
-0.02790047025537045 
0.01059833973557582 
0.01282794753260645 
-0.004232534790009283 
0.0009357382639767375 
-0.03576428937547799 
-0.00083780002237321 
0.004978412793922927 
0.01258086485260979 
-0.02632671321711023 
0.002238249644627302 
0.009422383756532184 
-0.03012115733417143 
0.02005045674263074 
-0.02794243219462856 
0.007944221635426341 
0.04687920120304011 
0.01769916917983936 
0.01151348530964719 
0.004522737294149561 
-0.02845976288069472 
0.0294433539432547 
-0.0005098037823555218 
0.01334523409664714 
-0.02082987004203069 
-0.01235735391652316 
-0.03065008463184635 
0.01668406439250987 
0.001161124906661016 
-0.006925260487972621 
0.004003793255223161 
0.006773856522758004 
0.006686522031750745 
-0.002928694763745174 
-0.03515073814306881 
0.02232431930467069 
-0.01810688808631062 
0.01101243690552882 
0.006149247655117805 
0.006563621638512924 
0.002742267343763326 
-0.002934133638926621 
0.006218681022348667 
-0.01299984475141811 
-0.009197691693698922 
-0.01707199630179087 
0.0003562807362521091 
0.00942523639502338 
0.00534091608854026 
-0.003072840871387063 
0.005975332047230792 
0.003410723032808418 
-0.004858688991411602 
0.008732599815901198 
-0.006263204051530742 
0.01976643804093755 
-0.004093722954093836 
-0.02379095106889214 
-0.009397992598695693 
0.01512927032265278 
-0.01912868562825778 
0.0022241066256846 
-0.02146993368663007 
-0.0160001202402291 
0.008397155968020901 
-0.002147075557762623 
0.0286505559232231 
-0.006493694282837291 
-0.00555377503013729 
-0.03541788382866402 
-0.00971100561622322 
0.0106989109655744 
0.003088634382949682 
0.01342848260381314 
0.01738877692590295 
-0.0004090858687376276 
0.01080847082271384 
0.02624079697899995 
-0.01006288148859815 
-0.001314596113568419 
0.002427969831360457 
0.01759485420134566 
0.00335404119796532 
-0.0006235249319439905 
0.01576131784070835 
0.01024487503860761 
-0.01323614327231774 
0.01347837951322855 
-0.008469883535618087 
0.0234011066639342 
0.0245682063330038 
-0.004141336085151608 
0.007272684160143496 
-0.003025842895219159 
0.01215033041189319 
0.009843505777525033 
0.003392946616741205 
-0.0008123250732940032 
0.005735360954720714 
-0.02214883681806597 
0.01152493861337968 
0.005657061300064797 
0.0214609622218948 
0.02191934252453447 
-0.01181257471694092 
-0.02185621762028104 
-0.005980574085987012 
-0.001250567183323252 
-0.01352735566891516 
-0.01324867112556336 
-0.007003203601505609 
0.04801858977417573 
-0.007267288733386458 
-0.01192539853984659 
0.01126640007483809 
0.003475505967396253 
-0.02071941632647525 
-0.0005726632876119915 
-0.02124756696850617 
0.009165408753565928 
-0.01596268692181218 
-0.005410651845821386 
0.03260214469903287 
0.01180725287964493 
-0.0172347020873347 
-0.02303862219300323 
0.007084016282822183 
0.009034675608347871 
0.02071271363538896 
-0.009337486351723779 
-0.002787646393651261 
-0.007540650869381602 
0.001861903136428323 
0.008547987580841467 
-0.006074118708461347 
0.004796385069469019 
0.036937313265285 
-0.007751895864964408 
-0.01396263115572428 
-0.0116446885137104 
0.004208290438050806 
-0.003508682408418307 
-0.009086530015347198 
0.007974846659870112 
0.01356496285280434 
0.003528156114944038 
-0.01425837980743495 
-0.02639577591607816 
-0.01147037072516825 
0.008995922258968891 
-0.005476601754817025 
0.00701839078881001 
-0.01197198408600142 
0.03583687709242954 
-0.004955060770351197 
-0.003485903071434123 
-0.005966957995723868 
-0.00239923975529647 
-0.02938000831829269 
0.01724271618774327 
0.007881455062929622 
-0.002376120846033699 
-0.02201814907702552 
-0.01516904893084525 
0.001345944917531528 
-0.01581797713778328 
0.02007238195262654 
-0.02152801725351697 
-0.003499986557644242 
0.002047534776443752 
-0.01703357104186727 
-0.001862878534423749 
-0.0006485279936755399 
0.0157709023893298 
-0.02129401144776363 
-7.010851507036585e-05 
0.009858520788405455 
0.002171557588504047 
0.01372494912786795 
-0.01131839846222653 
-0.002573610063288637 
0.004621947287358354 
0.004480559250421569 
0.008404828524134737 
-0.005233266333193224 
0.01015328308671275 
-0.02031568488211503 
0.01613797689501945 
0.01087596118627642 
0.001261085050951664 
-0.004333542983386869 
-0.001655390807485342 
-0.02829844289512774 
-0.02780752210416536 
-0.01149875156822533 
0.009339410166709276 
-0.004295733687255748 
-0.001730982684304364 
-0.0005518559355724889 
-0.0006390047475683922 
-0.006176003354337999 
0.001652431106243968 
0.009975680609600053 
-0.02797716032439142 
-0.02796078978464962 
0.01293655799452167 
0.009462661686558181 
0.001720462174180446 
0.00538565413143505 
-0.03982530334741089 
-0.0230692181112452 
-0.02775607670932757 
-0.01867121876882981 
0.006124590369981068 
-0.0115123357938056 
-0.003292444294299765 
-0.04226045495291274 
-0.04357481183566375 
0.02271855345833626 
-0.00368781224889539 
-0.02605808767965867 
-0.0207169378045665 
-0.01040852873734821 
0.002794919733733894 
-0.01272359864278693 
-0.01715868726144977 
-0.0226767421324506 
-0.01394224301366201 
-0.03070126894664099 
-0.02572050885216095 
-0.002008218893069433 
-0.004650434812568835 
-0.019088732402207 
-0.01858335187924904 
0.01147255610535523 
0.02778753112518982 
0.01532477851527851 
0.02947139164742346 
0.0006836624135609246 
0.02169082365026173 
0.007002409027876449 
-0.02969237553403356 
-0.004677918740103713 
-0.03079164869444623 
0.005921347620402013 
0.01535746133649107 
0.02607031986513803 
0.0009086930421562581 
-0.01339850803104417 
0.001333154985832634 
4.523194894381093e-05 
-0.003980997228864974 
0.007425556043199984 
-0.01715065179755247 
-0.009572315371755902 
0.01939270169416925 
-0.006169037978444524 
0.002081107773190845 
0.02022986357913467 
-0.0296829271989799 
-0.01265391942337506 
0.002324521523848259 
-0.007833253639127683 
-0.01065668480385865 
-0.007275690202289063 
-0.03829107984712437 
-0.001788424778669945 
0.01740012438947449 
-0.02592312340793472 
-0.005363133735930519 
0.008910702131600497 
0.0268562611766555 
0.004729785523850201 
-0.02132410325556956 
0.003506265723436317 
-0.004407086210031078 
-0.002573578308815765 
0.01639184693073134 
-0.02121863359582059 
0.03216023953632659 
-0.01966522325521147 
-0.008384905317312516 
0.007667680613204453 
0.006738477741570359 
0.02110768068472282 
0.01416261736187769 
-0.002783537962769521 
0.01350074401990306 
-0.01238523711923566 
-0.00836844333622231 
-0.0001439869586081977 
-0.01188376881311585 
0.01436928598772737 
0.003701623706305913 
-0.0001570848046949758 
-0.01819086682984613 
0.003876201604736075 
-0.02628373458248906 
0.01532336312094816 
-0.002162087531885517 
-0.003681890038165341 
-0.02158096626403967 
-0.008089374395960726 
0.01871300583129416 
0.00171283457770458 
0.01472417724262834 
-0.006057375363335498 
0.01507825626174323 
-0.0285148420666857 
-0.002616051751570292 
0.03035710440489543 
0.01991031087699378 
0.006601068137507364 
0.006701670317906971 
0.006709548563959679 
-0.05549094661077508 
0.00846851981125136 
-0.001310453723899519 
0.0093500523387716 
0.04403808006011854 
0.03026800906903658 
0.00354281819681558 
0.02073404252501665 
0.01229763550669773 
0.003145973733199772 
-0.006398797982830115 
0.002429985726766671 
0.006928799740781565 
0.02301236623245129 
-0.01999113303747349 
0.02447745467679782 
0.02432190174233914 
0.0006711037648610372 
0.0002625404952274126 
0.01644475727207527 
0.01381828021931978 
-0.006573518789668793 
-0.001156057956530029 
-0.02613865519501167 
0.02361864292094831 
0.001538780202158474 
-0.02099547098618208 
0.01180313448441145 
0.02124335357395203 
0.01069889427636538 
-0.03134015728741897 
0.01124294269619394 
0.00526642481142349 
0.0009161121776108466 
-0.01239099961886825 
0.0324917634048297 
0.004414170836474048 
-0.02711929184169255 
-0.0025413945878939 
-0.009420688242076257 
-0.01465679300880252 
0.002994704691665026 
0.01303448781022158 
-0.008555980553149619 
0.03758171739578691 
0.01369238095434317 
0.03102939622740859 
-0.02139151757909076 
0.01996929817050929 
0.006100769717538641 
-0.01907228158195173 
-0.004594001391666422 
-0.01526195415261814 
6.404736927731995e-05 
0.007539458885203562 
-0.003758019633489102 
-0.0129643274399308 
-0.0317117822959932 
0.01430740619264509 
0.01694960457866395 
-0.006149883023033967 
-0.006285779399859284 
0.01300576890431393 
-0.001299501562367687 
-0.00831666041744163 
-0.03836364702808483 
-0.0002810624539674921 
0.03089618347328809 
0.00912228057212104 
0.01045996785905204 
0.002976913329276479 
-0.003029722063112611 
0.01883520752600152 
0.0001731651016554949 
0.00180922617372372 
-0.007927668771411461 
-0.01684815360985548 
-0.009873785166053379 
-0.03507024190894514 
-0.01450769214639179 
-0.001469580626923542 
-0.004086785500224501 
0.009139807157084722 
-0.003662090009687014 
0.01857811816775874 
-0.05140866349543106 
-0.00891822066339383 
0.009491031535568597 
-0.005602467195330627 
-0.0006649467196109227 
-8.829420871987943e-05 
0.001953480971514434 
0.01842889028580623 
0.01055343116676067 
0.03310209584083586 
0.01316171414399559 
0.0006077435305859221 
0.0074151944193758 
-0.01070742607748996 
0.04039232784923243 
0.04351448887082744 
0.01554534296542149 
-0.002623518226829833 
-0.01291027010589196 
0.02102299872240167 
0.003941404585195916 
0.01065377304111713 
-0.002679951433724593 
-0.002197120987992306 
0.0004573578802347325 
-0.04940684894304934 
-0.01257021805803177 
-0.004517346375347697 
0.02969722084853378 
0.01062016921093883 
-0.01679256910348336 
0.002506829076528198 
-0.02793814340952067 
0.008155525009253166 
-0.002999720645911231 
-0.004507767137964646 
-0.008437836693765133 
0.01350066833075329 
0.0009649577049395295 
0.004327225998526005 
-0.03894084336514281 
0.03011161810407604 
-0.005866895842685601 
-0.02962246632526599 
-0.01681067036895511 
-0.005837722828876494 
0.001806177792797483 
0.02239029701557491 
0.01567381931622651 
0.0161521231265102 
0.005420737670518611 
0.01430669777088642 
0.0001729845813669936 
-0.006186082840723674 
-0.001544224393595961 
-0.01365928360859867 
0.01762679295692892 
-0.01484575650890804 
0.02162990788304155 
-0.001737349184228652 
-0.008102272154194312 
0.01417889801209776 
-0.005233640200117716 
-0.009979657204175272 
0.001468139079119028 
0.006999075277513353 
-0.01070522731509243 
0.01776039103677174 
-0.002902028748232633 
0.002690456055858746 
-0.005389317738992409 
-0.001106849239182241 
-0.002280029606724315 
-0.0041617960039521 
-0.00271124534171149 
-0.002274521205382005 
-0.001199122806967336 
-0.003381413462688697 
-0.002069650024562991 
-0.02045259891373353 
-0.004691797159059354 
-0.01208489563332363 
0.02952037745740787 
0.01863784978971038 
-0.0008226739496181532 
0.0281790813136313 
0.01162368607078986 
0.01057071758529727 
-0.01141344276211927 
0.02485476244422052 
0.04142366328399727 
-0.01840940780746401 
0.007121708177212917 
0.01465907309643502 
0.001962801902275464 
0.01929200351396545 
-0.01321126031683692 
0.03201451917980419 
-0.004374109292591829 
0.01376705380192939 
-0.01392858697730624 
0.02131172669155383 
0.01361921131946055 
-0.0007643569560068617 
-0.008327947797862457 
0.02493391528440564 
-0.009019696476093448 
-0.01193179010597067 
-0.009205421559163807 
-0.008873285819021167 
0.004123744671031855 
0.0151181856841698 
-0.0257053897731305 
0.006408013558245591 
0.006055883490354082 
0.003394584847893433 
0.01048456725519591 
-0.002901671959328282 
0.0177621789019933 
-0.005446654006457716 
0.008041762327690672 
-0.02755412078947034 
0.009040012365746202 
0.02055796391038681 
-0.01432827622475474 
-0.006200933929039688 
-0.02595742122388938 
0.01195999481460946 
0.02078173343079194 
-0.02717770899474817 
0.0121787165001857 
-0.009760118634534383 
-0.01693100754318937 
-0.0191939037441852 
0.002165468622998385 
0.007951599055087752 
0.01197262017914202 
0.02903205101763904 
0.00510062691965784 
0.03955743110441621 
-0.03802025548196284 
0.02341398939831249 
-0.005006010168649757 
-0.002596679966943346 
0.02580468541147135 
-0.005439449416049159 
0.00242446870376706 
-0.003027646069901763 
-0.003832517352031034 
-0.02071579284597203 
0.02475879872796235 
-0.0001523846707009587 
-0.01717768808928039 
0.0006527949369039565 
0.002764497900412905 
0.04319860048639278 
-0.0003247530481430921 
-0.004274968872881717 
-0.0161417394934138 
0.01056885762068592 
-0.002245443626152647 
0.02357311089687288 
0.01071281725118027 
-0.01525025907003227 
0.02029888360897047 
0.001712451028408189 
0.001235863575940385 
0.009623287200969353 
-0.01190860524543881 
-0.0002081385004862613 
-0.004649755010509842 
0.02583741107595951 
-0.006368630882671673 
-0.01131622678774626 
-0.01795852580958378 
-0.008555671738609756 
-0.02929152273554363 
-0.000709073223111646 
0.01646982830366987 
0.009003043399942207 
-0.01250697082509796 
-0.0143529999347808 
0.005058496428771095 
0.009903129116738418 
-0.01387846206508754 
0.01033258842816794 
-0.02241265100679323 
-0.01049867657282457 
-0.03472017120212344 
0.01140018640965411 
0.006353605583671204 
0.007044850867990847 
-0.03334084130889706 
-0.01815536714042336 
-0.006597813653152828 
-0.002944114564730585 
-0.003151301080311825 
-0.0175489836338453 
-0.00292277431506027 
-0.01269710773226217 
-0.01817665904715475 
0.02891782468591024 
0.02363387193656099 
-0.002334970686911417 
0.005075179967321053 
-0.004293165263022737 
0.01338752888530809 
-0.008189891283890605 
-0.02888004328256247 
0.005976171943321576 
-0.03054265593550055 
0.00409360046619447 
0.00700114704571883 
0.02040441627155631 
-0.007255636770380255 
0.02471835355939004 
-0.005770396316131142 
-0.009481817421261014 
-0.02537280598799997 
-0.01616607340333887 
-0.01166795471462989 
-0.01030717362160463 
-0.01020563128249139 
0.01204355715910457 
0.00107665412671168 
-0.01105781610676676 
-0.009829295582062216 
-0.02579946510737528 
-0.008813465255136351 
0.02744419233645272 
0.003154862143748513 
0.0306946417970386 
-0.01923205519884618 
-0.003731101453174634 
0.007690085875117345 
-0.01173853945392214 
-0.01176456165208266 
0.007089938013491295 
-0.006279176213257642 
0.01609908110490792 
-0.007092850346320017 
0.01161369460883531 
-0.009005255962950274 
-0.009507957296795625 
0.001804834127237599 
-0.01478675733682424 
-0.006397884495899582 
-0.005405912722089408 
0.002908319350599251 
-0.01114769937290839 
-0.01938655970709622 
0.009852432980088754 
-0.005054752670656166 
0.007016266710337288 
-0.006703192086792324 
0.01871598645536511 
0.01492743141270434 
-0.03745023957899398 
-0.008485888380715899 
-0.004038292982514992 
-0.01198558971160972 
-0.02375426326151019 
-0.002903958307600663 
0.01133342954193736 
-0.01683629094173543 
-0.01223375044813632 
-0.01739028583023601 
0.01037516025504453 
-0.003107623465307698 
0.0002396046402810485 
-0.02212865045010241 
-0.004616187445806634 
-0.02056273883767412 
-0.01937964917474239 
-0.01201589248589414 
0.008737530601627855 
-0.01635095025773224 
-0.003659369417039584 
-0.01000491752906364 
-0.01853179667369896 
0.01416680610967523 
-0.00482065920008995 
0.004412067732489665 
0.005343602111942241 
-0.004125881152733555 
-0.01227852810373454 
-0.01698938299633002 
0.0101925541242239 
0.007192541702351497 
0.003587128149857245 
0.004254068054333355 
0.02453396486988631 
0.003291990695359868 
-0.01150989698542116 
-0.007292218301004141 
0.006416084845809224 
0.004905692259397617 
0.005119232514710382 
0.003315245338359686 
0.007894083650786334 
-0.003514580909909075 
0.008650577108185733 
0.005749784513878927 
-0.004622953060973246 
0.01551305274611372 
-0.00561225874185945 
0.01675692317561542 
-0.00150730086269186 
0.0005249396477207156 
-0.009371017454593199 
0.006201585857213717 
-0.008948643361457943 
-0.009399518899456512 
0.01320490256867866 
0.01140117538422683 
-0.0217766939943769 
0.005361646334480745 
0.02220180489809371 
0.008501566039285405 
0.006953726085302888 
0.008704864669685175 
-0.006441751769055778 
-0.01381542177323393 
-0.005944034331242305 
-0.01218475348220682 
0.003922472310812214 
-0.00602366271385793 
-0.00213509669400386 
-0.001033230842284614 
0.04120285166456205 
-0.002188274964100489 
-0.03098711780986696 
-0.01049611767253735 
0.01124084396989755 
-0.01111288004194584 
-0.01014125674386878 
0.01778457458737278 
0.003281076382235856 
0.005805308666886533 
-0.01742328898907234 
0.0009151763155163628 
0.01070431167493432 
-0.01131637486733626 
-0.006217205649200906 
0.000762881670301675 
0.01416269392415296 
-0.009981211427369267 
-0.01444880317085256 
-0.01272026328173392 
-0.02540926451129358 
-0.0110940278000756 
0.01028752658432173 
0.01645240640409192 
0.02051555290889537 
0.00587454949398061 
-0.003231574489585367 
-0.03068125216141897 
0.01120657639672886 
0.008330686250254356 
-0.009493475668337539 
-0.01368142099305075 
-0.01400800180051238 
0.01697814095090428 
-0.01229647990724075 
0.01934460456855885 
0.001551965902217507 
-0.009596304714087308 
-0.01050409980890137 
-0.01452079698399888 
0.01115842872397633 
0.01563242221630854 
0.007327640732617182 
0.00579267812636958 
0.001650448967289342 
0.009306936907413816 
0.007439166366189124 
-0.01018925317033319 
0.00969163873057791 
-0.01175712955749901 
-0.007964891666828764 
-0.006324480316764834 
-0.002676458230663862 
-0.01830728065071105 
0.0004147968191985238 
-0.004296348619290511 
-0.008092367990933611 
-0.022057375682272 
-0.0124513396451638 
0.0176467554648664 
0.01998212856241889 
-0.01206368036008044 
0.001550206286200484 
0.007952215907272707 
0.003401219608152595 
-0.01441786192752461 
0.02077645225973389 
-0.03084454894573975 
0.0363784128960089 
0.02018201823968818 
0.01364249708937373 
0.00617436671021727 
-0.002228029271523364 
-0.03883719842159266 
0.01478723499798924 
-0.01409578532458002 
0.009263019766992578 
-0.02527446887922895 
0.001067351001919242 
-0.003147110161307728 
0.0218906940497717 
-0.03186871323025285 
0.00206437100102532 
-0.0101308930174031 
0.0253970890795401 
-0.02081592442687558 
-0.0004463766730193994 
-0.01028576381632534 
0.002770651697642995 
-0.01424911978077413 
-0.008075192534093672 
-0.00623227572630522 
-0.01474215367962464 
-0.005506982026165508 
-0.01674136864098932 
0.01020920282104112 
-0.008875559230809248 
-0.007370471144570866 
0.01253139647828153 
0.002695980001513695 
-0.0006757054769491802 
0.004964574977104456 
-0.01408464144738169 
4.952085915429198e-05 
-0.009006168754575231 
-0.002701926070958608 
-0.03652006717782153 
0.00352810499820388 
-0.03176354969543605 
-0.006602237593244335 
-0.008497205511120157 
-0.02910878561275678 
-0.005132216800594898 
-0.01483773259105742 
0.001634658535703456 
0.00443287022948464 
0.01489563581253084 
-0.003697830224897859 
-0.01795687552894865 
0.01100850139522968 
0.01926404402098334 
0.01338736178114266 
-0.001893031564882353 
-0.003607267989229011 
-0.009045911040115959 
0.0001338731318121252 
-0.0005282693316574292 
0.001023639970315132 
0.01392749750217165 
0.01033420203439172 
0.005417066174624127 
0.0007537700818801907 
0.004432917114122274 
-0.005334675763975693 
-0.01565126773071325 
-0.02731810662705819 
0.00291330405708042 
0.02421584151004475 
-0.005249598455701276 
-0.01226079962354958 
0.008546356057942133 
-0.009246286439145173 
-0.004109753261901383 
-0.0024803664445579 
-0.01844028177342592 
-0.02206502169415311 
-0.01501350500373293 
-0.008289712471360374 
0.02888004605814559 
-0.02365459934338274 
0.02534272022897188 
0.02061740623520734 
0.007184995361966554 
-0.01013127271287851 
-0.02192806487418398 
0.01498574666009387 
-0.01514422347708445 
0.002152694875570596 
-0.0005536661968098869 
-0.02192714860170471 
0.01126830570741071 
-0.01171952232304339 
0.009814866225505788 
-0.001308025889672113 
0.02976895882458623 
-0.02468174944609434 
-0.0163768052140718 
0.00219581912761048 
0.02975168356536123 
0.02554194968222021 
-0.004868350948090618 
0.004045195907803895 
0.01043056049576934 
-0.000926534232991738 
0.004354649707789 
0.001226545839203135 
0.01560319963806674 
0.001905144611664917 
-0.006326733869281486 
0.006569985477555002 
0.01157829013057778 
0.01957635534935027 
-0.003321375280374849 
0.008416917690371759 
-0.01003682501591048 
-0.02776346586252576 
-0.01152164576963457 
-0.009744685466522959 
0.002071920485550573 
-0.002979984701550322 
-0.005479651753659253 
-0.01364616209480277 
0.005988516978321402 
-0.01538178215270365 
0.01758859567402726 
-0.007290021252996312 
-0.0106408859464586 
0.006720670206756741 
0.01431381187586868 
0.008090427295510915 
0.002720632529275261 
-0.008710135586119407 
0.01636155692790863 
0.02049819960779948 
0.006206926831703229 
-0.01508181677025995 
0.02031963757079138 
-0.00648705750455322 
-0.001608184223053293 
0.003556902509380737 
-0.0082359740514686 
0.00212032554698236 
0.01652830061843327 
-0.0002580693519802035 
-0.0004127808258744676 
0.01613807090585076 
-0.0246365408723604 
0.002117096890481068 
-0.01063398364787518 
0.01759033003990421 
-0.01240796838544492 
0.008783998410565892 
-0.005568712386780652 
0.02764591914784978 
-0.01108040913587555 
0.006797108011556103 
-0.001327266061640904 
0.01205256256503283 
0.0139698404902154 
0.01516507736363942 
-0.006898339858677156 
0.0212124928519463 
-0.000148445693949533 
-0.001895614077862456 
0.007632918467954866 
-0.0004807396485253313 
0.0103066822307925 
0.003916236093863992 
-0.009276712758796796 
0.00720428133283992 
0.0003994497827654003 
-0.01667932575420029 
0.005148294190774466 
-0.01406916688560416 
-0.007982165164102308 
-0.004712129143940626 
-0.001515507636347674 
0.004540869651158856 
0.02274961027329835 
0.002268591438389791 
-0.01079677399552864 
-0.005959473329797133 
0.01319665351608812 
-0.003658540995209761 
-0.005158410699229659 
-0.0008904921892527685 
0.01120458585360172 
0.009013221956260373 
0.002634157991232431 
0.0127132795061336 
0.004015897215154004 
-0.001097823140122553 
0.009089997065789109 
-0.005479713173394797 
-0.01370333603244495 
-0.006419213778338505 
-0.006295421397127702 
0.00385608027579798 
-0.01424023232732749 
0.0003384557981018936 
-0.01006837056229665 
-0.008717334337668801 
0.002936647617698697 
0.001239956879051464 
-0.01746058354760543 
-0.01871604598745298 
-0.007320731364577541 
0.007779248230564683 
-0.002467991322152353 
-0.008672840961702172 
0.009631914420758723 
0.004896726634768131 
-0.01576727848157885 
-0.003573193571067725 
-0.04192338953196287 
-0.01527484967141659 
0.002072438515832884 
0.003424345102880843 
0.001994470215648774 
0.01466509385798341 
-0.004415147584698019 
-0.003145019022950545 
0.002095842840257558 
0.0133516797018277 
0.001493321829783797 
0.003069021280439011 
0.01714674764595616 
0.01353612282972051 
-0.005082987813406201 
-0.02672833333266446 
-0.008488830239328666 
0.005640163781592418 
0.004109339175898203 
0.002481593591264732 
0.007660783872947382 
-0.02313767904605801 
-0.008787522946113163 
0.001583216750771078 
-0.02147026299250385 
-0.007796454695051316 
-0.02037903170225247 
-0.005047036581321928 
-0.006620068624280741 
-0.01242103455226167 
0.008387904339089664 
0.03371612071087385 
0.01176073241466659 
0.003636957329555025 
-0.01972449564460617 
-0.00322155193966083 
-0.009339150369214354 
0.0005341079914695783 
0.005236183094495943 
0.005967084342315498 
-0.002666981256748724 
0.01532543628646216 
0.010622684972155 
-0.02175488913460132 
0.0009980325881792627 
0.005448783860387378 
-0.01742789152095397 
0.04272284150790095 
0.005218702343931118 
0.01031743025332115 
0.0004207338245167571 
0.005953948859266752 
0.01116728542750235 
-0.007658999606593614 
-0.03799733527470842 
-0.004217275268056678 
-0.02327466359328111 
-0.003540099153485855 
-0.01355939863373944 
-0.006081097456144878 
-0.008182434877587901 
0.00288968943246931 
-0.02879825862531147 
0.007406723912783224 
-0.01397462016687308 
-0.0198093785865078 
0.01383852211211272 
0.005208812763819525 
0.008619897198737169 
0.03086765013553723 
-0.0006232975408835002 
-0.009190095984739119 
-0.001703885701654368 
0.007822859004768382 
-0.01414732369915412 
-0.007004530865133945 
0.01297750573911034 
0.002383433752758294 
0.01882511659263764 
0.02113437827974255 
0.001837737216603922 
0.03802063019626707 
-0.004471401036174494 
-0.02922211819090566 
0.001729673334381762 
-0.006929139894733195 
-0.004668969225044269 
0.0001286217071147185 
-0.0002413885637529605 
-0.003331467266312645 
0.004202900577206381 
-0.02981849785327401 
0.008493475006931095 
-0.01231716500203459 
0.0196896631964582 
0.002970411328770317 
0.01795934445082835 
0.01214209041458672 
-0.01276243229978402 
-0.0159461186524732 
0.007208098642611125 
-0.03674408387931711 
-0.003145622692913188 
-0.01275860825691216 
0.008936599217483573 
-0.0180704963035322 
-0.02086921240022233 
0.002973712992810211 
0.01467132235696355 
-0.02380029879126567 
0.00513482249627457 
-0.02399715324972109 
0.01534672681064307 
-0.003128532518688702 
-0.007377468881844495 
-0.0127545989370851 
0.005256913081541892 
-0.004244761040882263 
-0.004747073092273296 
0.01203554954684451 
0.006623621211960685 
-0.04140957275759271 
-0.0145725606288553 
-0.01635225794479575 
0.01460143669157566 
0.009470800817233819 
-0.02248572013527337 
-0.02397058337937009 
-0.0008486383658285704 
0.001024265886541806 
0.002143125438135531 
-0.01062443874511401 
-0.0009706296318111102 
0.004753473842249189 
-0.0008420742830849998 
-0.02022177760170625 
-0.01931781893121642 
-0.006529523714771198 
-0.001884601106828844 
-0.01943815748134014 
0.02886135044550207 
-0.003305818953922596 
-0.00272159641495474 
-0.008870605242995076 
0.01362004369209151 
0.02043286039385004 
-0.002175003186002545 
-0.006954305622970268 
-0.0005679007296741869 
0.00139035663462976 
0.005714924887406452 
0.001938363463719039 
-0.0002415994783482895 
0.007000962088272354 
0.01123427563609114 
0.00287038214416711 
-0.01798911025299659 
0.00370779670711086 
-0.01084514546214282 
-0.004012904287551436 
0.02873892138717055 
0.007137954627948636 
-0.003694132171820698 
-0.03835879195254621 
-0.005902904884355925 
0.01205224112261373 
-0.00974347336546042 
0.01001140888025003 
0.01432189225272032 
-0.0139857508016259 
0.002438549314738905 
0.02809062366245842 
0.01235049867233432 
0.009663211759146596 
0.001410053869368667 
0.009973731580857582 
0.008742875282310604 
0.02041620113860615 
-0.01064458245250706 
0.001514612074283982 
0.001365081156937389 
0.005933235598170941 
-0.002691460823918697 
0.0370619414005915 
-0.003854611648674897 
-0.01553803661692626 
0.0007097145667704935 
0.004063903429233576 
0.02584296083319736 
-0.004871916226947137 
0.01469468647295661 
-0.0009054671156323789 
0.005135410684124127 
-0.0113408257339239 
-0.003796779329546391 
0.02440607481538242 
0.03401237765906474 
0.0103505746824679 
0.004260912786952374 
0.00577738114309503 
-0.008000564086254861 
-0.008689354599246638 
-0.001704719191427385 
0.002522142952408068 
0.01252347922889033 
0.01037006316462945 
-0.008133283249006716 
0.01849096318793482 
0.01279757683894496 
-0.0002704084718143122 
-0.01120057811504341 
-0.01787424597016895 
0.01869016827400498 
0.01234369184454925 
-0.002879643894441999 
-0.01258183881033513 
-0.002365820803913704 
0.002509934654712851 
0.001436991636734602 
-0.02568024372509321 
0.00589528438123128 
0.01545851285764664 
-0.00523896531027182 
-0.03234347961174518 
0.007674725815789449 
-0.009964328240874839 
0.007004386712421436 
-0.01286763108334246 
0.0077721110681705 
-0.004028054843890901 
-0.002454777369002381 
0.009104579021518823 
-0.01082336420502796 
-0.0002165925288060717 
-0.01844996898769538 
-0.02792388284432292 
-0.002975364873161067 
-0.01037771469820443 
0.03359172335176542 
-0.001311061554399674 
0.001743989928088901 
-0.006306447835338422 
-0.007961936756730558 
0.002065816620806474 
0.002647816307532489 
-0.00276987187710808 
-0.03278090589524882 
-0.01490168637781322 
-0.001515279675662869 
-0.003049714925619508 
-0.009284162714922474 
0.002878156169090059 
0.02084557097978784 
0.0003488664199960495 
0.0001635344928407963 
-0.002844925069185727 
0.002069375412611047 
-0.002465447579877238 
-0.0002159478585181012 
-0.007040160067226106 
0.01506935382181274 
-0.02219040644910598 
-0.004310026809657723 
-0.001781670803243691 
0.003122239159630988 
-0.005315849392103794 
-0.006532599706156394 
-0.001715932076123513 
-0.002989108350223651 
0.02248270114473491 
-0.006556181485085518 
0.004763862999797742 
0.02302189563103465 
-0.02257955159853654 
0.004689299277101635 
0.0131821245905344 
0.003571745364035062 
0.01670166832866063 
-0.0130637249930093 
-0.008195505799059753 
-0.007353624524849719 
-0.01435806091140487 
-0.005137334649216573 
0.02349783639382982 
-0.006275925886844006 
0.01680073955923369 
0.008266812278978172 
0.004092963157955242 
-0.01694838256425278 
0.03141164399251254 
0.01142088548669545 
-0.01487351305868063 
0.001363795308014595 
0.005752476200893491 
-0.01690086877198604 
0.003812042980651998 
-0.01804164739435991 
-0.02732359173193372 
-0.0009347281646605042 
0.003713435883542896 
0.005064994812885675 
-0.002106702516469806 
-0.003349116128602967 
0.009566176231663646 
-0.03354338041739061 
-0.02090600631328638 
0.02128738093029466 
-0.02786290924500091 
0.02347670925869287 
0.0176447655789603 
0.0005314377759297441 
0.003637824055762669 
0.00144811417567656 
0.02332289574525618 
-0.001327568899650631 
0.0185338738268935 
0.01684697013622281 
0.00179317680439744 
-0.01136914971660081 
-0.008941787952923025 
-0.01458483182229048 
-0.0004492068077432991 
0.001495671322347571 
-0.02059100197001574 
0.001083798881128133 
-0.006659824070091525 
0.02488264676319637 
-0.02021072513467227 
-0.01989333499382044 
-0.004279845029171672 
-0.006086477171847801 
0.03113427268186063 
0.001172737935519379 
0.01874969540991632 
0.009014176341452485 
0.02444500859854239 
-0.008700978998431089 
-0.0115791402119921 
-0.0108153142388073 
-0.01912867813771941 
0.01018198323463959 
-0.03393925330587132 
-0.003924252520350437 
-0.01034969958728167 
0.0009883829025064195 
-0.01326250910790931 
-0.005621689071267985 
-0.009609510787098128 
0.007688016945296672 
0.004227157306997512 
-0.02859549725762468 
0.01489192943066743 
0.02355293658754843 
-0.02291419801680763 
0.01822321108532695 
-0.01312570986555983 
0.01604906574506344 
-0.0004595975531300679 
0.01899561490727598 
-0.01462427248272488 
0.001494705441768974 
0.001905964683011385 
-0.009799758105250618 
0.005547047278518652 
0.01382905931200318 
0.02092439496440041 
0.01936652207303139 
0.01550535030417885 
0.02674497747620155 
0.00576166763560173 
-0.0115034015636466 
-0.02112856402008893 
-0.01482567728319138 
0.017082803519069 
-0.01142404230521733 
0.004433560589238124 
-0.004890778947616842 
-0.03614331575040152 
-0.001341824267321704 
0.001255218186316121 
0.01671012672273671 
0.01692900460602901 
-0.02414695624971315 
-0.005743197880363125 
-0.0002696316502599029 
-0.00450614971519081 
0.01831264206976355 
-0.02556687993608042 
-0.01770022394029044 
0.001507431986734305 
-0.0004980745879944637 
0.01960154327174893 
-0.004138551468099692 
0.001042239161567194 
4.909094144944038e-05 
0.006556915547313093 
0.01921241259466239 
0.01932421529795036 
0.001468164299560825 
0.01202916679468099 
0.01704819829638292 
-0.0005507839172033823 
0.00381351811638083 
0.01118379326287371 
0.0315133145196759 
0.006386302086683933 
0.01407903384944601 
-0.01081601079837569 
-0.02129290823586634 
-0.03664599377734008 
-0.02667161218242034 
-0.0007517421980233682 
-0.02463666520626446 
-0.006943864820063279 
0.007209044052348279 
0.0137080993207799 
0.01607735220295615 
0.01113602924837804 
-0.006511092572930015 
0.003684141681970768 
0.001743380799568595 
-0.007586067955615654 
-0.009986408993960114 
-0.01669451928853517 
-0.02106918531968227 
-0.008536992795825487 
-0.004945685919596834 
-0.01298872537500636 
-0.02125024060177954 
-0.006973566227285793 
-0.01316817465346896 
0.003647933498417234 
-0.01837289002544488 
0.001039968298474646 
0.02537865064065581 
-0.01151045353743365 
-0.008962012292139632 
0.02208625915567814 
0.02077239022858686 
-0.01247060708682805 
-0.007375083252304015 
0.01019843303946165 
-0.009851862438267881 
0.000642808463346124 
0.0144460312764683 
0.005277248176850801 
0.001361616457871382 
0.01316088269705898 
-0.00381459564002949 
0.01049048807091046 
-0.003074273827120378 
-0.01430489427954377 
0.001467040414201362 
-0.005113496867326737 
0.0162397340962202 
0.02002709024923622 
0.01218471109199535 
0.01178019565942995 
-0.01113540820875802 
-0.003424481377394616 
-0.0003671240081975226 
0.0004908632740117324 
0.002877624349510244 
-0.00110181654274505 
0.003298956723275216 
-0.0005889029162330185 
-0.005032345698888414 
0.00191515320573489 
-0.003198517958139457 
-0.005703876267251325 
0.004371478694364967 
-0.001911275604830361 
-0.004036154421795037 
0.00535327169693817 
-0.003423116494465768 
-0.003803607899312536 
0.001550362546360488 
0.001621908303313092 
-0.01070987768074877 
0.01142652274928564 
0.00988786219077363 
-0.004655446689595956 
-0.004913188418852635 
-0.0120095913903339 
-0.01335663139272611 
-0.006026432003878769 
0.01131679237011094 
-0.000444383493994854 
-0.006418259543750929 
-0.000392158564922129 
-0.0172140138063681 
0.02020775528350636 
0.01470010924276834 
0.02792409533037354 
0.01528434207411887 
0.001330581468934865 
-0.003442839349525545 
0.002911491826165634 
0.01689270901883589 
-0.02864694838057828 
0.005697941117327089 
0.01725514154576722 
-0.01994990488241509 
-0.00692013997374557 
0.00944546517676562 
-0.01652806061813834 
0.001746650279986182 
0.01190569412286772 
0.0006285132602118713 
-0.004245878672251296 
0.003667277194884902 
0.01761684798198465 
-0.004465864511546299 
-0.00669851043596429 
-0.02088558533532674 
-0.005031008291812541 
-0.020970298515525 
0.004675627562426433 
-0.004281105090615566 
-0.02024099186944913 
-0.0209487674779752 
-0.0005513734193942432 
0.02015265789923825 
0.01676482523689774 
-0.01275346754330884 
0.02048546144781847 
0.009429682315738862 
-0.008250894424783745 
0.02804283978831124 
-0.02148751097779556 
0.006426382591364275 
-0.005522955270290042 
-0.0183250066012254 
0.01607746427600082 
0.01151173227955941 
-0.02331610971392275 
0.02250211941681595 
-0.01336649583204941 
0.0183500590129814 
0.02698680465312318 
0.00382174566798805 
-0.003662191859213944 
0.0002390458208330781 
-0.01652459740186936 
-0.009364726479549161 
-0.004274920298827001 
0.02534583897073507 
0.003265016781284869 
0.02497132380111935 
0.01612273873124122 
0.01095409046093517 
-0.007928166644929851 
-0.007249353817561233 
0.01260615720364627 
-0.004932984372119232 
0.006796271592265942 
-0.01100581095961108 
-0.03936977704377553 
-0.03020498529667122 
-0.001125999161456072 
-0.01506575858722887 
-0.006704391195025735 
-0.005842307861477143 
0.02658941391225035 
0.01624030078807339 
0.0002577229843212264 
-0.01141418194098192 
-0.009459311024563842 
0.0228155209868675 
-0.01682692921879555 
-0.004669168446513064 
0.002147956248980857 
-0.009373288602506503 
-0.0050570706205701 
-0.01512786462362374 
0.002538098226317524 
0.02562269625152127 
-0.006477718818795826 
0.03428520743774296 
0.003682234075161793 
0.004235193288878322 
0.007700114136755443 
-0.01644923922407888 
-0.01423582528584173 
-0.0005338099463999129 
0.00301266958065962 
0.02277146963689098 
-0.01397974234436716 
-0.01431385347125994 
0.006079978950344602 
0.006532303026167034 
0.01361059425985696 
-0.01296307116666921 
0.004676795868620871 
0.007564666580555421 
-0.0146067307154655 
0.01352904425861247 
-0.01632135002848036 
-0.01149095548675444 
-0.02965070117058712 
-0.006913962784835835 
0.007919949437343057 
0.0002065301072555029 
-0.01079563904850628 
0.01050195489500416 
-0.01610434409957887 
-0.01310679571637003 
-0.02108069010253484 
0.007440627853076287 
-0.001895800912861425 
0.003244746412517607 
-0.00527074935348076 
0.02070222376186465 
0.03157770167961717 
0.01257504255850474 
-0.03833464348626855 
-0.01179891071944893 
0.00834370985776867 
-0.0102066009217699 
-0.01836784677466994 
-0.007333155314888711 
-0.01033989419356877 
-0.01415856161195885 
0.04020795633287545 
0.01173107530763114 
0.01257040458696674 
-0.01474852413533504 
-0.01857237816250542 
-0.01238911148251291 
-0.01976794537252115 
-0.02818178317146671 
-0.004388787103571509 
-0.01452629266449142 
-0.03236570441782424 
-0.0003941767401386946 
0.001719612835356063 
-0.005894317606336506 
-0.003810321954825299 
0.0005270276250813289 
0.007071992595765255 
0.01268028427941534 
0.01647945268154318 
-0.01234377636327738 
-0.007301472587575512 
0.0134270428797852 
0.01099398280772294 
0.01337798898201532 
0.02261132292152309 
-0.01981982720803956 
0.00911311948697417 
-0.00488981582279104 
-0.02459900028421479 
-0.01162682738004301 
0.01905702570511612 
0.00132393551515848 
-0.01852679635813066 
-0.01313961727286282 
0.001058958596005187 
0.01654553861510839 
-0.0105108483148453 
-0.003746959666241295 
-0.0009723873728074475 
0.01762208224252926 
0.02584669267620573 
0.01335083561993331 
-0.01082044217718478 
0.006492036234966164 
0.0006907878440447861 
-0.009804570661036108 
0.01120854162861286 
-0.001606561870553593 
0.02216596997103981 
-0.009884699179391988 
-0.01528922406773776 
0.008842022145278718 
0.01692303892803204 
0.02759571569424609 
0.0101765816686874 
-0.01265316152996029 
-0.0171890437074447 
0.009033905980518489 
-0.004304614271996819 
-0.00826650627476927 
0.006071479791476846 
-0.01711988614818794 
-0.03087169602841707 
0.01960013349083772 
0.02114130624773448 
-0.003698143477789018 
0.01665571582999152 
0.006419193632957428 
-0.01276808744431999 
-0.01603943710194419 
0.01643459129875542 
0.003922889186219592 
-0.01584155772301158 
0.02311905166087386 
0.0109385645740239 
-0.005376403351910834 
0.009109733875422256 
-0.0157785477878026 
-0.007099614080983856 
0.01439959140438157 
-0.002298661294363577 
0.02349746992508149 
0.003629503400692517 
-0.01003649050670035 
-0.01468978140989673 
-0.009341402997386252 
0.01539382858813153 
0.007056184629012798 
-0.02424052449330511 
-0.01013438349156317 
-0.0161106189463998 
-0.008968145175644135 
-0.008580799396574867 
0.007217677857083818 
-0.001505020796593376 
-0.009252048759125216 
0.0006322572879615543 
-0.01362873965177152 
-0.0006068447899512543 
-0.02218425759213502 
-0.03344566508308651 
-0.01639386391818827 
0.001962087768299741 
-0.03526650794905884 
-0.02716860274747279 
-7.252873791058854e-06 
-0.03158285291418419 
-0.001623340225867352 
-0.01104157106194296 
-0.005447367061230906 
-0.02012298785820303 
-0.01959336549695371 
0.01271556607725358 
0.007037157897222413 
-0.002965922500334253 
0.00590758125794512 
-0.01364028263341433 
-0.02010108074600562 
0.009709222349498857 
-0.01423346720587442 
0.009726284718385703 
-0.01668415456711171 
0.006154823850582735 
-0.02534602587405186 
0.01703970992267478 
-0.0002098898215236721 
0.01301996193443654 
0.006127027443035371 
0.01244127461428899 
-0.01432956237763387 
0.01395119683912871 
-0.01568464085482351 
0.0001176104337549285 
-0.02421691145033501 
0.000133025446500447 
-0.01005712408048885 
-0.01507405279576225 
-0.001758876654180785 
0.007298171501762781 
-0.003581791363545802 
-0.02358688361607457 
-0.002590266760278887 
-0.01509102745872397 
0.03346706732342922 
-0.01504549584126259 
-0.001771791367793212 
0.002671613222433593 
-0.0003709529221979855 
0.008728933944250549 
0.01391004449228192 
0.0075713781798582 
0.001815263478631578 
-0.019966802603665 
-0.01691576503225619 
-0.01226879362884551 
0.02739827640152937 
0.008247124735032448 
0.02076070437183108 
0.0005848872978915303 
-0.009779930206619349 
0.005675720692849909 
-0.01951816439149086 
-0.01056015423804004 
-0.02534574544743919 
-0.01925142490658781 
0.009922212784173618 
-0.007176253680480551 
0.005451578879695868 
0.009918531347128976 
-0.0006720105208877023 
0.0105588960696659 
0.02066111321455487 
0.008288703841042079 
0.005288264043898389 
-0.01387705399840257 
-0.0009930899310949576 
-0.01056924902037246 
-0.01238941323100972 
0.001870119050933335 
0.02686588041397876 
-0.002065211177161746 
-0.01278292221842857 
-0.005142943319099935 
0.02377251988108977 
-0.01159082718201512 
-0.03379098646124078 
0.008318353679237245 
0.0114529071095676 
-0.01645100703285619 
-0.003181099628004045 
-0.006916245828306857 
-0.01278138467840095 
0.02146752707008293 
0.007600035285103075 
0.0526377486572026 
-0.008154331199861043 
-0.003390502996875069 
0.002062008044862195 
-0.01517865902805408 
-0.01389728504977737 
0.01137834139620722 
0.02036474884454893 
0.01386567122466357 
0.01310006832275501 
-0.0004114574493389831 
0.01493565630573209 
0.00266181772025316 
-0.003002376039593435 
-0.02235784650481129 
0.01080210963443454 
0.02893646779230268 
0.02079502145671575 
0.01696665427415874 
-0.00821198743310983 
0.03252951745743831 
-0.0002119602316261224 
-0.009151221812743944 
0.04070257868877229 
0.02967613461586078 
-0.0009392779784078375 
0.008278877278034502 
-0.003997352635048516 
0.003299601677460417 
0.002812284173243165 
-0.01667055712361534 
0.01004118163730036 
0.003220893810245169 
-0.02054611297250312 
0.005300592867177189 
-0.0276434851611295 
0.01770331833063773 
-0.01266179054227942 
-0.02204107898268882 
-0.002784037837270497 
0.004173796282149081 
-0.008632584948110981 
-0.001095515482764154 
0.02128074900090392 
-0.001254958849304849 
-0.004419810348378892 
-0.005555478186945212 
0.01846776530131816 
0.001540673626872334 
0.002921914811082011 
0.005206986742777751 
-0.002498625282395165 
0.01568001231641996 
-0.02064791536508081 
-0.009384359278438937 
-0.01846263293103973 
-0.004279961640969861 
0.0310155959502296 
0.02278584020863179 
0.004456847712152289 
-0.0248668651197845 
0.006045076994333196 
-0.01990997783962895 
-0.01395455659290044 
-0.006382026172753417 
-0.003684809762670747 
-0.01466019534038032 
0.01176884283707358 
0.01028352761420503 
-0.01709943596191365 
-0.004433992865450464 
0.007714383803794786 
-0.03251271274410604 
-0.02218674442464503 
-0.0199451163926457 
0.01156248548342475 
0.003535659786422155 
0.00833831371179951 
0.0007474594260389695 
0.02810276146438476 
0.005727505750275822 
-0.02458364128489382 
-0.01062632241752211 
0.01141852620411286 
0.02165817996009011 
-0.002370292424771842 
-0.00243632094707594 
0.01249269639012427 
0.02516895808140605 
-0.003309003623402556 
0.001559284947320723 
-0.00194578392965551 
-0.009251044517080588 
-0.009362909904812894 
-0.02417237177206746 
-0.001254690935436669 
-0.02288845194202567 
-0.005734752371341872 
-0.01427563410971964 
-0.006363852293372386 
-0.001562287672018273 
-0.003412395608508961 
0.01296654411079786 
-0.02383050116092834 
0.01944708601240925 
0.004642619424617453 
-0.002601398101052739 
-0.008971464113034624 
0.03676503580484968 
0.01423068213421022 
-0.01773655798797057 
0.03871908578672768 
0.03964360236200849 
0.004463109524221587 
-0.0002361359174218638 
0.005107668418078351 
0.003323590770881154 
-0.005589388807401902 
-0.02238946932039637 
-0.003899800171947515 
0.01524521454188645 
0.01218266976100981 
-0.01792749546122066 
-0.01503548223806147 
0.002024560014768462 
0.01831192662299935 
-0.005966062397026387 
-0.009829197509904162 
-0.004129005126445169 
-0.0005858952377448667 
0.02452327675567211 
0.01329272263209953 
-0.005371391037680929 
0.01818144228686881 
0.005330406867795841 
0.001644018928360227 
-0.01326050890070832 
0.004065850555653653 
-0.02741948362604604 
0.008848844008885852 
0.009685013981666823 
0.02299485400376819 
-0.02062581336312209 
0.003570478582776307 
0.005109054188545755 
0.01525225932418012 
0.003300509886728114 
-0.01039101723639359 
0.001478894165331377 
-0.01944028958477118 
-0.01697254376310092 
-0.002141629122872058 
0.003301696199506949 
-0.01434591013438162 
-0.005107999497058222 
0.02256102406857514 
0.005657765061814224 
0.008780011300034423 
-0.02241746509261875 
-0.002272780186270637 
-0.008657542563293784 
0.0021575973694357 
0.01336349975417421 
-0.005981873037479388 
0.003790736331877263 
0.004140872679474091 
-6.670914454933108e-05 
-0.007315457382532402 
0.01215815364411283 
0.0008535743517559006 
0.0103060191291738 
-0.003171904507291982 
-0.001799830570586872 
-0.01009750820301736 
-0.003234315392605725 
-0.01667326546333653 
0.001985844093464942 
0.0008755570258095779 
-0.03324142561190395 
-0.00513346728883581 
0.01349198768168489 
-0.001884629120528639 
-0.01067455799128833 
-0.009052577826730036 
-0.00963686447285496 
-0.008426317920287769 
0.00222868039115213 
0.01425161561675471 
0.001152318369255607 
0.001019207509525064 
-0.01823198609418282 
-0.006527777887195718 
-0.00230102788369858 
0.007513348468336135 
-0.003576762697547948 
-0.0006925910562061161 
-0.006151036374173463 
-0.02967808628872888 
-0.01495870810410679 
-0.02829215203691276 
-0.01307077424018101 
0.004145194466820171 
0.01301554679763758 
0.01204314662106529 
-0.007896881182351928 
-0.002936518892835794 
-0.01584137234858014 
0.03248689768717838 
-0.01298404267246572 
0.0136470362798298 
-0.003320805140709715 
0.01048840042848568 
0.007979589599270533 
-0.00992977835896376 
-0.005357187132347961 
-0.01968606290952043 
-0.01365581478873764 
-0.01653047617420842 
0.008186062101038196 
0.001422792317902872 
0.003430948564170666 
-0.006445923005789379 
0.02519639187680115 
-0.00269855712628907 
0.01446977037462762 
0.002906802859013142 
0.01169415983924786 
-0.01991106777674354 
0.02295310523935646 
-0.005966728869365576 
-0.009527416101862083 
0.02032987404184939 
-0.02727924303001762 
0.03562935648936395 
0.01580005948870444 
0.02457018169518309 
0.01736100079211771 
-0.0001498850191639035 
0.002718131521107321 
0.0002293909632381129 
0.01533726591844334 
-0.0002921174741558058 
-0.008789265837034863 
-0.01214631799276147 
-0.005771828433829178 
0.04187522792145641 
-0.01012376786305625 
0.01861931501416082 
-0.01438323107707888 
-0.01342155661166992 
-0.03357526386382455 
-0.006826237914237056 
-0.0006356986310774942 
0.007961888727519739 
-0.01119856504631344 
-0.01322733321158712 
-0.004877102552970699 
0.00346087396311695 
0.03108907365246578 
0.01786536291866745 
0.009064996929934961 
-0.01782528745427776 
0.02346156672659736 
0.01800870908899703 
-0.0103503940354268 
-0.001120251800766291 
-0.0114589689458703 
0.04093179967132143 
-0.002716911827795133 
0.0006807472810140623 
-0.02841189917233079 
-0.006436509718522184 
0.009020525383371787 
0.0112531976885015 
-0.002530892831712752 
-0.01497003470457219 
-0.008304741511837474 
0.008732684668980653 
0.002339282367122902 
0.01081516002532559 
0.006101295963644212 
-0.0006083981545125659 
0.0111925919478086 
-0.01817106018404243 
0.006247508107651983 
-0.0005560937016598665 
0.01593001697870242 
-0.01399127181184955 
0.007103197798536229 
0.01590357633458265 
-0.02817126311954438 
-0.001907328250532535 
-0.007421590158099848 
-0.03286112748140223 
0.002060921833398145 
-0.00550142042672082 
-0.00807426328750442 
-0.02792579795212676 
0.01743142669567604 
-0.003818186494500163 
-0.003613771667183527 
-0.01449346711149582 
-0.01230035645351027 
-0.007890448296507955 
-0.006916513211149906 
0.0005896081008539403 
0.006745808773798426 
0.0162682831645454 
-0.003785729549068591 
0.008153100619575486 
0.006161850662829519 
-0.004112142720619922 
0.0102169740638249 
0.03163672955152776 
0.01095923541816692 
-0.01306363175868779 
0.01841526260512721 
0.02318835426168499 
-0.008247187269686236 
0.01611268793272442 
-0.009982654485706281 
-0.01965346314290377 
-0.04392394587071819 
-0.01543615116627523 
0.00619010939060881 
-0.01661978469937312 
0.002749501975780859 
0.01034152522149821 
-0.01621423901008867 
0.002852204862551527 
0.001788157176179739 
0.01035698672559023 
-0.02437197578331224 
0.007842483333716017 
0.009730880603382702 
0.00310695488466267 
-0.007923273442411087 
-0.01852459513463494 
0.001205385575680988 
-0.006926671146404534 
0.01285900954481521 
0.006028116230868197 
0.01022213514487542 
-0.01968123654387025 
0.007467184794166561 
-0.001513862107688405 
9.275203202469809e-05 
-0.02160593420112384 
-0.003037808331528349 
-0.00463388021826113 
0.0009072008471823982 
0.01209908437075692 
-0.006763663457900014 
-0.001432962532834532 
-0.02637618313141538 
0.02145385516254548 
0.007823962878214012 
0.01297784112901031 
-0.01681282127108752 
-0.01081137084825162 
-0.03057891160642245 
0.02703611698715908 
-0.0004326449471321721 
-0.0009016799908266695 
0.02096619150384676 
0.002862586767818165 
-0.008249325788232904 
0.04259944984787371 
0.0128484749708137 
0.006286325770660806 
-0.02675904010794916 
0.006881454635124842 
0.01763054342473057 
0.007041496630679498 
-0.003859050967826861 
0.0003920201767116419 
-0.01725842822724766 
-0.004114684348636946 
0.00827885858990788 
-0.01260824093519398 
-0.007796541933741968 
0.002328399831708919 
-0.0008823971650326642 
0.008185900051901292 
-0.0004760619302936898 
0.006146148117364696 
0.020578570662521 
-6.06603232904655e-06 
-0.002161307033339793 
-0.0007347499353844648 
-0.01535776236513778 
0.02115795781593732 
-0.004727285679441861 
-3.076978446484957e-05 
0.01466515273507737 
-0.007337214381672696 
-0.005955293505640252 
-0.009211815153339794 
-0.001013830480485472 
0.003165817197710146 
-0.02194133528525962 
-0.0123339807218651 
0.0008037768341064717 
-0.0181025967329025 
0.009644795261822022 
0.005900597676539191 
-0.002868240527846985 
0.005740122848112462 
-0.003141714655261093 
-0.01328320993236815 
-0.007019741866511205 
0.00131086464379034 
0.003449584783044305 
-0.01108276947437757 
0.0004426494666975864 
-0.01419997745867885 
-0.001921288544665169 
-0.00769478223964514 
-0.004233784825981601 
0.01264627952885882 
-0.0193665875821791 
-0.004125892601370766 
0.01541290020980129 
0.008922721224138303 
0.0103141522715134 
0.002178373620125354 
0.01437701846676927 
0.03763652844020955 
-0.005601920961801258 
0.002958666561788732 
0.00740438301661268 
0.003610226248119495 
-0.007494497981039089 
-0.0001244141391152115 
0.02262157542949992 
0.04267373566853217 
0.01047898258888232 
-0.03100259525061034 
-0.01330382121075038 
-0.009646182802211604 
-0.008507711599268539 
0.003047233632048879 
0.009104007732643219 
0.02704983410222673 
0.0139480306243001 
0.0008023522213313902 
0.01342774015015171 
0.04680392766486464 
0.001977258586009847 
-0.01731072095950852 
-0.0008673468987175747 
0.01024074315277151 
0.0220290881744565 
-0.05461936562487078 
-0.01671330146150685 
-0.008816271755744957 
0.01875693996529748 
-0.001970044567113991 
0.009553301991468191 
0.01405532688010382 
0.004772411399556049 
-0.0300463536860414 
0.01515476181038647 
0.0161372997685075 
0.02163034003237584 
0.02347144630322073 
-0.01676585880107048 
0.009572572885280394 
-0.02296600424521639 
-0.03113955917342857 
-0.009365906472692302 
-0.0002414886769392478 
0.01408412000351894 
0.007212212726331374 
0.02293836666086397 
0.004255111232987584 
0.02233744968861413 
-0.01139204486677259 
-0.003624043687740727 
-0.0259464460035085 
0.0101768713611255 
0.008540364807789969 
0.006309910032365329 
-0.004563537595672934 
-0.04162241540206459 
-0.001550925795703522 
-0.01212730648130652 
0.001191433310164514 
-0.006663741736751594 
0.01515059071752698 
-0.007381250912364885 
-0.002563720727718177 
0.02743224106869607 
0.01753686274227351 
0.001125710999688163 
-0.02145905499244218 
-0.01175833854148734 
-0.003451049855824337 
0.001609729619164475 
-7.249892792516692e-06 
0.01800621050569225 
-0.004535380153641234 
-0.02370092072119814 
0.004645685978706206 
0.01213633954531436 
-0.02335332813744484 
-0.001299381309864154 
0.00822616576228976 
-0.009813973890719092 
0.01815210347300254 
0.01693559653205544 
-0.001925541532559558 
-0.02973922734869056 
0.02047630700354801 
-0.006405079313002251 
0.007180420361159274 
-0.01481911587333832 
-0.02518710764752834 
-0.007727895804268055 
-0.002302905369232538 
0.01787154743983526 
-0.005083889956903552 
0.0004807035131491862 
-0.02367260047144851 
-0.01148439108201316 
-0.0004393562687057712 
-0.02914766188081922 
-0.01461389976664723 
0.001686048624952834 
-0.003363138925213664 
-0.02468060677073512 
-0.002926810475046166 
-0.003614934843680914 
-0.02106436685202944 
0.01293251507906198 
-0.005788114416657888 
0.007664502480287444 
0.006752197222882973 
0.01188513116288301 
-0.00390192259270895 
0.02870095252493179 
0.002242517502101011 
-0.0008154859464253555 
0.006271615538385315 
-0.01364760442718507 
-0.01422010075670395 
0.0001550506524105195 
-0.01475633963484422 
0.0008581519030434652 
-0.01655298564424954 
-0.01291285653545685 
-0.006600723488608474 
0.0006973498150875454 
0.001734889691953508 
-0.02211454170288848 
-0.007935948464175037 
-0.009471362064735549 
-0.00687801906152408 
-0.002653541828557804 
-0.02376741796206714 
-0.001105150099200283 
0.005154064259733975 
-0.0211389747315035 
0.01286504133121527 
0.006289622872198105 
-0.002084011605783891 
0.02556985365021749 
0.01709252360864669 
0.00899275825243172 
-0.009646607879679289 
-0.021292184559867 
-0.01125586041827413 
-0.003274819727009699 
-0.007649013867020772 
-0.01888188905379376 
0.0002759683653543373 
-0.008804193348626088 
-0.01622478875444812 
-0.01369160134034805 
-0.01467412908456944 
0.009722947259323964 
-0.02001782820039825 
-0.003887019984632322 
-0.04530632592307829 
-0.007589493706426229 
-0.004452622527134434 
-0.01366356670992284 
-0.0002516596596313096 
-0.007881804552822187 
-0.02320950635931417 
-0.03198442479497952 
0.005096871985900889 
0.02774636879513193 
-0.01742563267868617 
0.008826341668986208 
0.002801899089232056 
-0.0121109875560514 
0.01281107657366471 
0.02722660206699005 
-0.0002022642756702222 
-0.003287871939784436 
0.003197845880977589 
0.007504731957759122 
-0.01436268216965977 
-0.01570014644383539 
-0.00531481962300456 
0.007394798354655848 
0.007660398940911749 
-0.002518748256518284 
0.002158094551403613 
0.001927191062784752 
0.01587267449450228 
-0.02147868260069313 
-0.01182043690984726 
-0.000755724298548532 
0.01129132224356749 
-0.007111148048983773 
0.0001758388475596971 
0.01152460459957085 
-0.0006074430644429766 
-0.006179619010560642 
-0.01284124050767895 
0.01989345910197729 
0.01216053407628957 
-0.008723770548105952 
0.003302631478968715 
-0.005851925788608017 
0.004012092778994189 
-0.03144821740774612 
0.01260273039001092 
-0.0018103057931378 
-0.003654124763568644 
0.02204958846307291 
-0.005232378583426781 
0.01578578188444911 
-0.001609639660602506 
0.005581637100705215 
0.01075980082732734 
0.004830613046387652 
0.002698585502203707 
0.0007461177046031344 
-0.001466751889450543 
0.006153517336300792 
0.01329167176568332 
0.01450319940031771 
0.009234553114465877 
0.002810021747574173 
-0.01697727141816338 
0.01123665760246998 
0.002124541022159736 
0.01390262972590621 
-0.008649847934861591 
0.006162335713658087 
-0.01941795756677263 
-0.00580267354868882 
0.008216971894694714 
0.00442225946396887 
0.00133411786699842 
0.009998450828092406 
0.003232814125072982 
-0.01004382385357007 
-0.004005857570312589 
-0.02379997202040748 
0.02119102728938049 
0.01622496974620829 
0.001558310490635856 
0.02363735930049632 
-0.01517977909569882 
0.01442111699139319 
0.01054632306282705 
-0.000900653503022452 
-0.004289166731162807 
-0.004706816699441552 
-0.02273224442566374 
-0.01347603156775597 
-0.009755575988894637 
-0.001127324985399928 
-0.01684842293377311 
-0.01588462186460805 
-0.004123798643170593 
-0.0186785359848796 
-0.01132920220753525 
-0.007452140775776656 
0.01731083234666636 
0.008636518802689895 
-0.02666957377180495 
-0.002043238853550058 
0.001232595802033744 
0.003183197424533352 
-0.01780330883560586 
-0.006888540169121596 
0.003640440225692836 
0.01249085235475565 
0.003573853789403236 
0.007649679457840198 
0.01694682211513468 
-0.001076736228272598 
0.006806709232433727 
-0.02516933522587362 
0.02571300823666357 
0.006469843965520342 
-0.005217354467404563 
-0.0007524223755534171 
0.01914259072937686 
0.0001635210972976692 
-0.01886973417647719 
-0.03283691601227646 
-0.01021106291512091 
-0.01039358306730022 
-0.003844912336835711 
0.01505341621310096 
-0.003733100581145783 
-0.02908710666976869 
-0.02079821849208126 
-0.01128264392467088 
0.001484439146734521 
0.005376665337948546 
-0.004552458380303557 
0.02505142806555408 
-0.01791762140020132 
-0.02816102674309326 
0.004765186734834283 
-0.02377897226450733 
0.01124661755027366 
-0.02291496848647871 
-0.006378570573125721 
-0.004212955056218151 
-0.005172464100505938 
0.01951956329371419 
0.001067032040447101 
-0.0212337355673045 
0.0104500378355902 
-0.002750313408159631 
0.01838138546231393 
0.01103588447240928 
0.00294278862716998 
-0.001496456938573537 
-0.01235825304694326 
-0.004784973133995887 
-0.0145304553450953 
-0.020140106162011 
-0.00649299751854693 
-0.0152953012393497 
0.004514143495064866 
0.0109016072304059 
-0.03960501905355521 
0.01371169420850173 
-0.001320239186767634 
-0.01484213184204995 
0.0327029092061576 
-0.0141335010090685 
-0.0210443609576398 
0.007665197539278155 
-0.01264553457679247 
0.02006843789864211 
0.005441667170899345 
-0.01744461041429433 
1.212419434708521e-05 
-0.01368567040520507 
-0.009016701264038045 
-0.003186756251476529 
-0.02006309634706837 
0.007404114542599849 
0.002352436630585836 
-0.0005338109721588705 
0.01167361284963523 
0.0421586983484245 
0.01003739211331729 
-0.007773518035069656 
-0.01152677320402499 
-0.006671082036985199 
-0.01759431528179283 
0.01360307666384341 
-0.0140734535058952 
0.014236486843532 
0.009841414804657682 
-0.003375232676774457 
-0.01019207015367098 
-0.005440720867744793 
0.02433834590656121 
0.00990296526148814 
-0.01271482717545408 
0.005362931905873316 
0.01261851604816073 
-0.009574888468903956 
-0.01769048824441234 
0.01336024193461339 
0.004748150017263107 
0.01330626206249999 
0.002034255390311251 
0.004672331522973912 
-0.02156332159651577 
-0.0153669229298173 
0.01527014545682585 
0.02363608432652282 
0.001384455399370721 
0.0240363662792935 
0.02552393067600009 
0.02709365475569762 
0.02132684391082558 
0.004483419169985984 
-0.01649861493134095 
-0.0092342473152426 
-0.01319064630755653 
-0.003643793071693718 
-0.0197475437691385 
-0.003994801452147038 
-0.002990360912840994 
-0.0192888727616264 
-0.001339941451199551 
-0.01642196751266858 
0.01420953146836242 
0.008974932029288436 
-0.02989795692915964 
0.008872894513016804 
-0.006297590180550504 
0.02321590822087837 
-0.01665498703114366 
-0.005698120037312774 
0.007280931316962126 
0.003080904727680463 
-0.00557740634035294 
-0.00104246952627834 
0.005454012809754877 
-0.01002492099601569 
0.01161941809066553 
0.02508609347111236 
0.005223515892492482 
-0.00565139552149169 
-0.01872817280569484 
0.009067802423220996 
-0.006998996227259443 
0.008089984496130858 
0.02991334290998401 
-0.03548166835152131 
0.01230134601422771 
-0.01737064963703465 
-0.02903886569650859 
-0.0111393877203405 
-0.02943279990176062 
0.03418693352944115 
0.003478428452752899 
0.004683991658266416 
-0.008906813376685654 
0.006422704118738241 
-0.009676341937862504 
-0.02280210770554284 
0.005542359814264647 
-0.01127976221935154 
0.02272517058639634 
-0.01269946835307127 
0.01411583442236518 
-0.0173203586910601 
0.003339116194443834 
-0.01861329775144972 
0.02212966193136476 
-0.02781329139154201 
-0.0218128275638751 
-0.003932053941037814 
0.008630890620953497 
0.01254089155308593 
0.006213317909976061 
0.01787667051215017 
0.02332843671447739 
0.01243436196543425 
-0.01087863795629823 
-0.01393953653606182 
-0.009671820651194133 
5.478519393532387e-05 
-0.02210024177452707 
-0.001677496270470337 
0.0001319310649757755 
-0.001108146910662826 
-0.004201542780059761 
-0.01429468455378747 
0.001875512661577212 
-0.01976629591679434 
0.007199624538408438 
-0.005513546013732728 
0.009493122547765961 
-0.02931475960931559 
-0.006557188016138213 
-0.01624226463318285 
0.02012401505150916 
0.002224455263804069 
-0.004055509930986369 
0.01669411745556907 
-0.0008404923721063164 
-0.00876071204872711 
0.02300731209100981 
0.02201575999693554 
-0.008442528219364627 
0.01964005993379015 
0.0245259293798195 
0.02799786667924047 
0.04034048816718881 
0.002514677989239008 
0.003631306723336363 
0.01333130541788209 
0.005180309066577605 
0.006955112522422015 
-0.002695423313747646 
-0.0006143999353419546 
-0.01183784297265191 
-0.0221996880760404 
-0.001661762667092851 
0.01620421957371512 
0.02058047856314743 
0.030121781673893 
0.01047755222995705 
0.004972500150327923 
0.006228687546233684 
-1.831830180524466e-06 
-0.004762067055073417 
-0.001387774325787077 
0.02173331418537729 
0.01450610332824094 
0.01825236961214413 
0.01902660218284419 
0.01466500002943218 
-0.01454984103556262 
-0.02807121070706109 
-0.008205880419726067 
-0.02584023988698189 
-0.005786006907455564 
-0.006783572237874262 
0.018241250159699 
0.008978942917308512 
0.007576223407926604 
-0.01600248188990005 
-0.01105825845290509 
0.01612700074643601 
0.01125907293498918 
-0.009110189134051008 
0.008700281467609835 
-0.009502920889178647 
0.006117562896580875 
-0.0006047785607954177 
-0.02669981570177031 
0.02434079283924822 
-0.005506521563884174 
0.02686315485546403 
-0.0152260676896741 
0.006281130847753235 
-0.01525627770873395 
0.002957363135672856 
0.008850973430756822 
0.029219269716664 
-0.009433200414891815 
0.008761774574679807 
-0.006912381117449397 
-0.007585344647579727 
0.002493671630715789 
-0.0008302299480667347 
-0.01227293371713308 
0.02197281511938133 
0.008025919878023631 
0.02317062505097985 
0.01060004539960217 
0.02509688296574898 
0.01199354119820134 
-0.007935417009972547 
-0.01199306432812687 
-0.00845302805208145 
-0.0193208375784711 
-0.01248185619191264 
-0.0007155242533027175 
0.0007975345939231534 
-0.02153598688329926 
0.002616140522354241 
-0.002535882972465923 
-0.00493178622533052 
0.01009581914072191 
-0.01524790727401618 
0.02019304186943155 
0.00185997119107519 
0.03316813552620992 
0.01457439505917512 
0.004702630442664113 
-0.01091187629139023 
-0.03084893234114522 
-0.009449966937694232 
0.008612008022292332 
-0.01818182241816406 
-0.000235980792110004 
-0.005215899153847526 
-0.003967029025564525 
-0.009299318893942161 
-0.002992213855126377 
-0.008762814327358856 
-0.01266358097640896 
0.01790981181088667 
-0.02301842801614264 
0.00282181826052129 
0.007767915818340168 
-0.002783168328430195 
0.007593271724295097 
-0.007063224755874797 
-0.007070914542405755 
-0.01889520980484604 
-0.0135606436224545 
-0.006020044478371998 
0.002016663023160911 
-0.0005593598848843508 
0.01715254605549726 
0.007520546776152653 
-0.01048236268201505 
0.01662582819107709 
-0.001240268176235298 
0.01369983726345297 
-0.007764922224304761 
0.004756785630950981 
-0.009559163166284973 
-0.008521872296596622 
-0.002001679010345239 
0.03532387456455704 
0.002980804622552097 
-0.02234976350513048 
0.0007075110002783091 
0.0004313369817162948 
0.007654225103055262 
0.002241243007702808 
-0.01120319555780888 
0.01644861239972022 
-0.02280169648725505 
-0.0004781473630653622 
-0.01939394294887693 
0.02122874721007592 
0.009466348344938489 
0.01784227081438027 
0.006808143404756192 
0.003071810821036979 
0.0126904977064881 
0.0004121479581607766 
0.01098106728195575 
0.003284240020346807 
-0.003065731711405691 
0.001013642973547149 
-0.002350337867709835 
-0.01158058981202177 
0.006006171849806169 
0.008467614363005631 
-0.005834008160083576 
0.003572628868997989 
0.01067747594807222 
0.007703974237387842 
0.008326276449521991 
-0.02139878594709162 
0.005913546278723272 
-0.01015850345672509 
-0.01228838108842892 
0.003964836139591737 
-0.01131810730877458 
0.003350255335217148 
0.01378071730595013 
0.01582855502367351 
0.002270173149936549 
-0.02753099762346006 
-0.05458642059081979 
0.02096032105811956 
-0.001335484491201703 
0.01423010597891592 
-0.02489862457580549 
0.01558284862868952 
0.02820669000635973 
0.01158249832417735 
-0.01860121434540492 
-0.0006092550771201546 
-0.01747960795757261 
-0.0005409875725104656 
0.0136153622100675 
-0.02373777414829764 
-0.0008395239705694436 
0.00385574667561625 
-0.008115589329708314 
0.001348610617313697 
0.001566003639002294 
0.01011761843041649 
-0.0006608921203804334 
-0.002575911857168541 
0.01815302480945557 
-0.02072552125018492 
-0.0262641385888572 
-0.00442329267669539 
0.003623058058477043 
0.01736958407660402 
0.01185339056892922 
0.01491089713277747 
0.003033433952060501 
-0.03566189430730117 
-0.03240925406491323 
-0.0239731766402716 
-0.01742046142700509 
-0.01467664260449347 
0.0008938419992220022 
0.01209376378045557 
0.02441103157422871 
-0.01066050878697695 
0.006635337459409193 
0.001579031591803346 
0.0007379584919571555 
0.01442697709865477 
-0.0009201054111061487 
0.006343522036326627 
-0.008046016315949046 
-0.006297029607812271 
-0.0172546954889419 
0.006460912369517464 
-0.002329618393333419 
-0.007863998213912805 
-0.02000387018598969 
-0.01260559724438364 
0.01921327072230643 
-0.01463553140805201 
0.002326277422815354 
-0.02020158891088118 
0.01269230619097776 
0.02476304290947576 
-0.00517040377964231 
-0.002465953442932902 
0.001409118310045361 
0.01324025677522835 
-0.03281199315770576 
-0.0003423238073269405 
-0.001246177163486365 
-0.02748829694390831 
-0.03015794723933947 
-0.01924801816383726 
0.01222660916097782 
-0.02055139124712056 
-0.0008745854164056718 
-0.005685244557756954 
0.003017674225079332 
-0.01568443385868898 
0.01706211403336673 
0.01712415562152072 
0.01905680635399063 
-0.002342804049826326 
0.002391042279268207 
-0.01842818413682125 
-0.02642391961824708 
-0.001360081998066609 
-0.01204509975338573 
-0.01797442524509399 
0.00650415321361745 
-0.008096629155731604 
0.001851714696659468 
0.007486337247737841 
0.01441049324431237 
0.00387699768868964 
0.006844537297344711 
0.02736233468481648 
0.005215242408168589 
0.001455948881156338 
0.01745843090745991 
0.000599199008415539 
-0.02575695642395088 
0.009299947670920622 
0.003162467775286378 
0.02242416348286005 
-0.001568095452381308 
0.0002971744930163637 
-0.001554683234122159 
0.01059006605789259 
-0.006310478860653798 
-0.00161541665782159 
-0.03068336323756268 
-0.02630841528345237 
0.0126561169042398 
0.006227509667878234 
-0.02257396240385347 
-0.002011813484823319 
0.01180103911245726 
0.01581621539440026 
-0.01823070604310181 
-0.00362716938467956 
0.007187084995237632 
-0.005141851659345853 
0.03045397549861853 
-0.006370914531422539 
0.00143230184826514 
0.01771523209263294 
0.001877022396101989 
0.01812318513711229 
-0.001567799541643825 
-0.009594502271964017 
-0.01065181315969197 
-0.009723825357177508 
0.0068462349771462 
0.002674864853343341 
0.01675687399552197 
-0.002999728454018915 
0.0003320632504074073 
0.0089567877274079 
0.006995749589962106 
-0.01751345653549044 
-0.0122589339318042 
-0.02114035527388586 
-0.0234242870460309 
0.005067914168254901 
-0.002015454890077364 
0.001570858608644338 
-0.01440096517550899 
-0.0002569490148673067 
0.002590762395233006 
0.003113197084896254 
0.008888832357408378 
-0.007309055974670796 
0.008546472979519104 
-0.007487408644024259 
0.01468467143550598 
0.02721778477071241 
-0.003169289676179141 
-0.009660119064975006 
0.005542655758731487 
0.003041099659027408 
-0.01387152297798735 
0.01154306930722966 
-0.01624432639396148 
-0.005179414522033523 
-0.01296095317884778 
0.001035686504454403 
-0.01458542986173656 
-0.005672881234826287 
0.005871984424042715 
0.01222314070247131 
0.01065564032360763 
0.002873094970990704 
-0.003544858241490187 
-0.01986275069875775 
0.01770282214844496 
0.01518346418469071 
0.003598029123158551 
-0.009484972074418648 
-0.01980104566195168 
-0.01864140429493547 
-0.006366600431551619 
-0.003590152107738395 
-0.01108666093078196 
-0.02363230447683965 
-0.02810397154050185 
0.04358161260104806 
0.02965577143514629 
0.01631307634090015 
0.004265813328068092 
-0.008949948667113976 
-0.01540487984287483 
-0.02324373613255554 
-0.01294605666121041 
-0.004757469994201534 
-0.008748337048483219 
-0.009029178788397516 
-0.01940666705744033 
0.007194241069759199 
0.01336974079073218 
-0.0173986693048557 
-0.001462381680950147 
0.02418683813024882 
0.01007430439882672 
0.004293174649509116 
3.279015482495487e-05 
0.006536096835981952 
0.01661222391274818 
-0.01218046237060773 
-0.0008894670166556978 
0.02865334347744229 
-0.002510828997796783 
-0.02014045359714705 
0.0105902378128561 
0.006907431795473882 
-0.001386094893788052 
0.0107862469842047 
0.02556772409882847 
-0.01940556284588086 
0.01055544497566266 
0.01529272022451759 
0.01632223204583959 
-0.003723701382305042 
0.005292373282768331 
0.01074647097007686 
-0.001390334696726014 
-0.005000550204930666 
-0.0005861474952635248 
0.02356111316306296 
0.004516693101181987 
0.01189796409315707 
-0.02393858303140722 
-0.01005755066991063 
-0.01592947074190488 
-0.009134093320879519 
0.00399485919732284 
-0.02000856405988809 
-0.01631490561543362 
-0.01711089392143549 
0.007982513069088572 
-0.005608303054401505 
-0.001226671687094277 
0.02425915836168496 
0.02189034170776282 
0.01369454436504142 
0.0002951253392119872 
-0.006798025116779333 
0.007069106856879686 
0.003445530439520182 
0.02315414291550566 
-0.03782637388154714 
0.02758922392078583 
-0.004608301044793327 
-0.01393077428919685 
-0.02632151122798797 
-0.01337028202518651 
-0.01237240072137181 
0.007479449823903507 
-0.01702435150545808 
-0.03433728306255194 
0.002677277160745685 
-0.00775994661867491 
0.007685157309950867 
-0.01448886736735199 
0.03646831627829175 
0.02412834577327096 
-0.00186146673470772 
-0.01432617387416049 
0.004667873461486125 
-0.01588261038629788 
0.01245513660661845 
0.01007868826382511 
-0.005797379878496465 
0.007947415650676722 
-0.01753389710271067 
-0.0220967068975579 
0.01538763476728527 
0.009218232705024164 
0.0008123266863471926 
-0.02827824033239022 
-0.008422050289485233 
0.008962310576136234 
0.01472770980815467 
-0.03380801125873714 
-0.009181217601688781 
-0.007142760118595578 
-0.01070595596621364 
-0.03629006350402003 
0.005854884624560524 
-0.003434943149016071 
-0.02495769520534488 
0.01806811216454718 
-0.04743243101334736 
0.02633535657875922 
-0.01054902999928291 
0.00187995928445413 
-0.01367431870181536 
0.005509459995039222 
-0.002760966171878608 
0.03524267084662847 
0.0001756655692120215 
-0.01530821546171491 
-0.002619454016890088 
-0.01545706825884323 
0.00244194615771597 
-0.02878119278148453 
0.0005359223490676475 
0.002632718091934924 
-0.004484495000386859 
-0.007731445899600694 
0.01714452039528974 
0.01311772616138143 
-0.01239191064266938 
-0.02193009895020458 
0.006765129257295823 
-0.008511224096674316 
0.01258806145873188 
2.953615389715363e-05 
0.005391084544388754 
-0.01324152141232201 
-0.00851487749723602 
0.0002372532523585972 
0.01030696936019442 
0.001968084975612464 
-0.009312935994278413 
0.011102823379852 
0.02196030089626533 
-0.008711335438126414 
0.01209803597862764 
0.01430330899640266 
0.02233083074595976 
0.001386279969065225 
-0.001458734387335184 
0.0133535942670621 
-0.007584654867509442 
0.01773134799349694 
0.02446612947189461 
0.01506638421894652 
-0.007371600543009406 
-0.01342256893681092 
0.01985098440127005 
-0.006546874618847636 
-0.005446174244860969 
-0.006875102331625598 
0.003389365849001732 
0.002199948611427924 
0.01459801647749705 
0.01810308200644735 
0.01117981661778893 
-0.01268673001858681 
-0.008473161743006311 
-0.01374317576208295 
0.00163481134757355 
0.005278705326246254 
0.008968380644583222 
-0.0009769150019168244 
-0.007505584793028684 
-0.01117219315462986 
0.01541792336983751 
0.02710125843852925 
0.02269429583280697 
-0.008660284125027055 
0.00483634511207379 
0.008010010174108883 
0.004919172184792992 
-0.005033643658121242 
-0.009361103140145611 
0.01039952920978106 
0.0168728134498484 
-0.002210214303858658 
0.001644286017232677 
0.0016473883694918 
-0.02544694756751488 
0.0002627462135695244 
-0.01250130016965456 
-0.01509447931709746 
-0.002253091948850594 
0.002679284372520129 
-0.02236065939064861 
-0.006587697464090558 
0.01956082453616368 
0.003462133301381847 
-0.02279282515307312 
0.0008983647168733348 
-0.00214573760881331 
0.01174230450208774 
-0.005147334127329778 
0.01145394383815482 
-0.0008223154777248628 
-0.002003896027831352 
-0.00429962105385158 
-0.003645408838351193 
0.01003791709976675 
0.003755589830439826 
-0.009057414797964661 
0.00108378385016625 
-0.001485256100679439 
0.004725659052103081 
-0.01725916348334064 
-0.01465034209488935 
0.002365079669621194 
-0.008163719172141724 
-0.001075605502041322 
-0.01354100851725906 
-0.02337594152975484 
-0.01339871784440387 
-0.003773593071622333 
-0.01505060873464348 
-0.003026768159962125 
-0.01258011873354536 
-0.02214482680948268 
-0.01574664087772463 
0.03217252443288242 
-0.01298603111777673 
-0.005925822839875057 
-0.001644087676671262 
-0.01903739968696957 
0.02133855878579407 
-0.004167567535977313 
-0.01629138495582334 
-0.001457283029492609 
-0.03232177514073072 
-0.007571611519078271 
-0.009901430500913444 
-0.01316175359418615 
-0.0008684598040789766 
-0.005883452455566981 
-0.006442656982238817 
-0.01622374076624674 
-0.004937040691055238 
-0.006790018834121446 
0.005477333952238251 
-0.01422204337088316 
-0.0105162417604342 
-0.01730872575917793 
-0.001177343139364629 
-0.01643161994344187 
0.02232543151929379 
0.004856239290661274 
-0.004775805247646656 
-0.01241966970821021 
0.001683854318048276 
0.01341142940483655 
0.01608338676543095 
-0.01598837972712713 
0.006783714825382198 
-0.01528601319027678 
0.0243970769979488 
0.03443117578194481 
-0.009821883161118695 
-0.005093588488883336 
-0.008870239263593394 
-0.006677370027695895 
0.009707389695374172 
-0.01299853433879688 
-0.01176897173115015 
0.01711791015402429 
0.005432066804389119 
0.0005383346873025084 
0.01867950508493068 
0.001138793808832343 
-0.005788785401621202 
0.01779241122026541 
-0.00426308758147475 
0.01206538862516047 
0.006870106993930029 
-0.01377999600842015 
-0.003745437525637571 
0.007999014320935204 
0.01050614247376416 
0.01843881599892026 
-0.01717895313996071 
0.006596635273447197 
0.003579198577964199 
-0.02543225406576396 
-0.001557530080308451 
0.01674135968000739 
0.002447897979049682 
0.007542423975165838 
-0.01611164034333274 
0.005487527810549575 
-0.001741674390096337 
0.01203154859980562 
0.01594675409258664 
0.04287854779555862 
-0.01031677214531021 
0.01525435020605757 
-0.004472114677029778 
-0.04314596815680957 
-0.01878009034727854 
0.00842015633794331 
-0.008560327238365216 
0.002417888044225988 
0.003141360129199047 
-0.01327622919922524 
0.00240739148345492 
0.02110023806144208 
0.003981906198952117 
-0.003498445488061459 
0.02833365247793092 
-0.001051424494949802 
-0.02430548692214859 
0.02727205402480347 
-0.01205563256421332 
-0.01131241017155675 
0.001442875242569484 
0.008945422549528429 
0.009785759157804294 
-0.001988460840637024 
0.01321148050316419 
0.01086849952997028 
0.01556297420780715 
0.02806224765511247 
0.003984350793121086 
-0.01035712191752304 
-0.006517141308520551 
-0.005397465057372651 
-0.00713524924877088 
0.003705964327725333 
0.005001421080033161 
-0.01339723674419992 
-0.01515586829955307 
-0.005718337347237418 
0.01100869280278039 
-0.01053084979813007 
0.0004294393407962753 
-0.01299248100449674 
-0.02709292963770401 
0.02548358539644635 
-0.02968152304922021 
-0.0074779339971157 
-0.004378392225775813 
-0.00230931464809077 
-0.02377674929568305 
-0.007371895750751153 
0.01116199168577324 
-0.006658593477453835 
-0.02530835134582443 
0.02460182261648258 
-0.02714180321875245 
0.01142929171019894 
0.02958991753091236 
-0.003056752253358676 
0.03056121573801894 
0.009450681122954743 
-0.003845920806718005 
-0.01976281598517505 
-0.01877940179195196 
-0.009351956540127023 
0.00161613606744749 
-0.01075110375017815 
-0.002365227170694966 
0.006997163081335574 
0.02220070813143225 
0.003159546728129675 
-0.02534661535995247 
-0.005655320880152411 
0.001804959452269903 
-0.03184139848659729 
0.01764925509598555 
0.003985458763753926 
0.009448410760337179 
-0.01364018830925454 
-0.001730736116933022 
-0.01392567461441758 
-0.009002500126537333 
-0.007791264554680338 
-0.002270507235609968 
0.004737090658872144 
0.01138363638236161 
0.00063287890843606 
0.008233619457178074 
-0.02122013366262418 
0.01035269895196205 
-0.003612956386870847 
0.005872440514353084 
0.02214910001406518 
-0.004505210134343432 
0.007176145536187845 
0.03207861596905075 
0.03260694570918068 
-0.02295940899589659 
-0.0008044939896385729 
-0.004902899406882458 
-0.001803609086011628 
-0.02547534369046859 
0.008339031455697046 
0.02896388500687931 
-0.003480909616696143 
-0.005124301767374085 
0.02158182571432071 
-0.006246488857733734 
-0.01051900619283845 
0.005503990374951596 
-0.004782502640102333 
-0.01363926271891486 
0.00216777907938039 
0.04326847417740708 
-0.004524733702412898 
-0.01456007053785066 
-0.002449332959988761 
-0.004036706496715323 
-0.002183515300142529 
0.04280082678802109 
0.004082295245692164 
0.001265718213655355 
0.002079810562432237 
0.02691187644898443 
0.01944588618029608 
0.002007001024370076 
-0.01697505232735191 
-0.01989281786023239 
-0.01109682663608693 
-0.008696623144786482 
-0.002413476953728136 
-0.01258725869977341 
-0.0007869444007620255 
-0.02136730067890838 
-0.0005813431717016943 
-0.001041637439004884 
0.003695688302787591 
0.003799527982220035 
0.005864772640687918 
-0.01250458247284068 
0.000882340298624268 
0.001590549631966471 
-0.001807562204734891 
-0.00242225688851789 
0.0161680297029911 
-0.0003227593881921463 
0.009027993200080435 
0.002663507334251682 
0.01013530935833316 
-0.001757586973210711 
-0.005071872074905203 
0.009646760942940284 
-0.005844214226176702 
0.02072028883714406 
0.004387147163223604 
-0.001035153166440642 
0.009895163793190817 
-0.01542652712175189 
-0.00573718883872852 
0.003910540166469667 
-0.01076148726055582 
-0.005529488557247855 
-0.005426325425868439 
0.00937907442924997 
0.002067897034571891 
-0.004744997394110944 
0.002482888192322983 
0.01192812133997755 
0.007083367042630865 
-0.02237825349496664 
-0.01508654185335042 
-0.004005457554853573 
-0.02358368343891624 
0.01108524725337704 
0.006116881774818506 
-0.009398793642311838 
-0.01018379395836166 
-0.000678896746564428 
-0.001592775653576762 
-0.01417088081526732 
-0.01426928793113908 
-0.003338173046620963 
-0.01061186951088806 
0.01329776926039383 
0.01745906839500359 
-0.01404291805352927 
0.01169437928079268 
0.001476824819444713 
0.03492567432903454 
-0.008694675538107566 
-0.005812747141314726 
0.006613300432141644 
0.01955078728853462 
0.03943271650417808 
-0.02194225877669898 
-0.01379058451679611 
-0.002262888437192467 
0.01233424019896446 
-0.01110852723794907 
0.008627369668247765 
0.0007782601368858096 
-0.008054627048642932 
-0.01774333590391123 
-0.02643061485626071 
0.02592073180573467 
-0.008426225971986683 
-0.01297293591143285 
0.0004450720069415193 
-0.008466169550768312 
-0.0008731601680611137 
-0.01938335746283689 
0.02876193742223214 
-0.004524913700150957 
-0.007260165219141731 
-0.003262254581556876 
-0.006295607198167523 
-0.02871747077627873 
-0.01710499229869638 
-0.02109506399447368 
-0.03614772513035996 
-0.02329646209318838 
0.01153965983578244 
-0.00158295408790223 
0.01470146677673169 
0.00794657514368333 
-0.003101550423983673 
0.01651225477300172 
0.002014460695806933 
-0.02098140841733181 
-0.01973511613420898 
0.01476854480204782 
-0.004416668526445178 
-0.01543455572510525 
0.004693658975196252 
0.02717703528680578 
0.005441847157597294 
0.008941613860259212 
-0.0001016496505559675 
0.02404397915330471 
-0.01462995627876619 
0.01562843130123212 
0.006711945995703162 
0.01083955876779178 
-0.002344214847598842 
-0.01053824849008605 
0.01672011915740813 
-0.007123418455373212 
-0.01050276814996309 
0.01181375034352936 
-0.003692388209212168 
-0.006197181110515579 
-0.004990649119706141 
0.02763406435365599 
0.008232879264365207 
-7.635851920595113e-05 
-0.01647957879344179 
0.004970544262147969 
0.02077511132500649 
0.02080228248128793 
-0.02063231699555177 
0.03271939607800944 
0.01852565967928637 
-0.01205664064847238 
-0.002116742984091494 
0.01648815822592242 
0.006502062292723928 
0.004528820298251461 
-0.02329025006564391 
-0.002621260927044112 
0.008036775972731546 
0.003957689350239761 
-0.01223085875126413 
-0.004807480994937861 
-0.00937288435718546 
0.009426976729854139 
-0.004073623135211561 
0.01394869170258077 
-0.003032907588016949 
0.01419920849776457 
0.003981445505857536 
0.03149207149963506 
0.02697533682541672 
0.0196505493889447 
0.003886927523359138 
-0.0226550509588688 
-0.001765852859099732 
0.02130096097811054 
-0.01301965201122001 
0.006647781978185874 
-0.004788550144350071 
-0.02032918057752187 
-0.02555113320794481 
-0.006146132438767107 
-0.03168984208800225 
0.01050926998081637 
-0.01585244611803002 
-0.01209930568144516 
-0.01840396673303841 
-0.01999030789127674 
-0.007683178144557741 
0.005653841389420187 
0.00236062896936699 
0.005920526889319284 
-0.004126061987838854 
0.008224602789655505 
0.003248361158424754 
0.009314744093099998 
0.02531155387347262 
0.001531360989604527 
0.004463419424068961 
0.01416045722933502 
-0.006762527169707457 
0.008424776039206612 
-0.01683109910378435 
0.03131674407955989 
-0.0130605616982668 
0.009390660446481751 
-0.003684966548829124 
-0.03608880972776977 
-0.03041779807728703 
-0.0260813638574111 
-0.01675681278014084 
0.02551667361835429 
-3.307672422964662e-05 
0.04072899607500657 
-0.004531213531825409 
-0.003722029193317969 
0.0154853732717035 
-0.009592785684314202 
-0.006183420058898514 
-0.01329990856859712 
0.01466750377679854 
0.02399693781801437 
-0.0239621108032971 
-0.004792716694845249 
0.01718289590602544 
-0.01796587828695473 
0.00708122170691673 
0.006075358410119343 
-0.01460363626244955 
-0.02748912592714141 
-0.03287920546697236 
-0.002065223209649254 
-0.004585338533037592 
0.01561895620428921 
-0.01666166601362881 
-0.008200336685154779 
-0.01462885583440839 
-0.01096387838293024 
-0.004602835535997034 
-0.001689067646043055 
0.009666802210291965 
